{"learner":{"attributes":{"best_iteration":"1","best_score":"0.5972850678733032"},"feature_names":[],"feature_types":[],"gradient_booster":{"model":{"cats":{"enc":[],"feature_segments":[],"sorted_idx":[]},"gbtree_model_param":{"num_parallel_tree":"1","num_trees":"102"},"iteration_indptr":[0,1,2,3,4,5,6,7,8,9,10,11,12,13,14,15,16,17,18,19,20,21,22,23,24,25,26,27,28,29,30,31,32,33,34,35,36,37,38,39,40,41,42,43,44,45,46,47,48,49,50,51,52,53,54,55,56,57,58,59,60,61,62,63,64,65,66,67,68,69,70,71,72,73,74,75,76,77,78,79,80,81,82,83,84,85,86,87,88,89,90,91,92,93,94,95,96,97,98,99,100,101,102],"tree_info":[0,0,0,0,0,0,0,0,0,0,0,0,0,0,0,0,0,0,0,0,0,0,0,0,0,0,0,0,0,0,0,0,0,0,0,0,0,0,0,0,0,0,0,0,0,0,0,0,0,0,0,0,0,0,0,0,0,0,0,0,0,0,0,0,0,0,0,0,0,0,0,0,0,0,0,0,0,0,0,0,0,0,0,0,0,0,0,0,0,0,0,0,0,0,0,0,0,0,0,0,0,0],"trees":[{"base_weights":[1.1086401E-2,4.495316E-1,-3.7982263E-2,-2.0343612E-1,5.78538E-1,4.068021E-2,-2.5444347E-1,7.765334E-1,-5.668382E-1,-1.0210096E-1,7.110006E-1,-2.0358612E-1,1.0731791E-1,-2.9367653E-1,9.3998015E-1,-1.851306E-2,7.0984885E-2,-1.5026033E-1,-1.0507013E0,6.524646E-2,-4.2276844E-1,4.9931628E-1,1.2258663E0,-3.9055282E-1,2.2153822E-1,1.8165423E-1,-1.3992949E-1,-2.2949623E-1,-7.302637E-1,7.0421085E-2,3.5583083E-2,3.0215868E-1,-4.836018E-2,-7.460206E-2,1.249859E-2,6.266103E-1,-8.977314E-1,6.811787E-1,-2.553276E-1,1.4006236E0,-3.196117E-2,6.549278E-2,-5.916702E-1,5.3787756E-1,-2.4739681E-1,2.4305237E-2,3.6304995E-1,2.8461727E-1,-3.0615383E-1,5.465521E-1,-2.9018372E-1,-1.2852147E-1,-1.1053824E0,-3.196117E-2,3.4728467E-2,6.151671E-2,-1.5750628E-2,6.524646E-2,-1.851306E-2,1.8334052E-2,-6.715932E-2,5.367566E-2,1.3485822E-2,5.487109E-2,-5.3462923E-2,7.570087E-2,1.8334052E-2,-3.4980446E-2,3.1773563E-2,-3.809731E-2,-8.9724053E-4,4.3545138E-2,-9.573137E-3,-6.0660917E-2,2.3132078E-3,-9.458989E-3,1.1252819E-2,2.1414643E-2,-2.2239238E-2,2.8962975E-2,-9.245556E-3,-1.8982807E-2,5.487109E-2,4.1085374E-2,-4.3887496E-2,-2.6977569E-2,-7.3146904E-3,1.9854724E-2,-6.0660917E-2,-7.2759114E-2,-7.0574507E-3],"categories":[],"categories_nodes":[],"categories_segments":[],"categories_sizes":[],"default_left":[0,0,0,0,0,0,0,0,0,0,0,0,0,0,0,0,0,0,0,0,0,0,0,0,0,0,0,0,0,0,0,0,0,0,0,0,0,0,0,0,0,0,0,0,0,0,0,0,0,0,0,0,0,0,0,0,0,0,0,0,0,0,0,0,0,0,0,0,0,0,0,0,0,0,0,0,0,0,0,0,0,0,0,0,0,0,0,0,0,0,0],"id":0,"left_children":[1,3,5,7,9,11,13,15,17,19,21,23,25,27,29,-1,-1,31,33,-1,35,37,39,41,43,45,47,49,51,-1,53,55,-1,-1,-1,57,59,61,63,65,-1,67,69,71,73,75,77,79,81,83,85,87,89,-1,-1,-1,-1,-1,-1,-1,-1,-1,-1,-1,-1,-1,-1,-1,-1,-1,-1,-1,-1,-1,-1,-1,-1,-1,-1,-1,-1,-1,-1,-1,-1,-1,-1,-1,-1,-1,-1],"loss_changes":[1.9759996E1,7.9048424E0,1.4079016E1,6.1348243E0,7.0556545E0,9.900148E0,1.0602505E1,4.027437E0,2.309907E0,6.6392355E0,6.467869E0,1.0452814E1,8.800774E0,5.832052E0,3.0197563E0,0E0,0E0,3.155107E0,3.5285797E0,0E0,6.4155936E0,6.72322E0,6.840191E0,8.380036E0,6.1373124E0,1.0481167E1,7.9155955E0,9.019035E0,5.948863E0,0E0,1.9997041E0,3.6797323E0,0E0,0E0,0E0,3.3556383E0,5.2774334E0,5.962122E0,1.2177728E1,1.4368019E0,0E0,1.2974709E1,6.1615524E0,6.113979E0,4.8749247E0,8.523099E0,9.18441E0,4.4968605E0,8.690648E0,6.2047534E0,6.2054234E0,7.0345917E0,5.3566265E0,0E0,0E0,0E0,0E0,0E0,0E0,0E0,0E0,0E0,0E0,0E0,0E0,0E0,0E0,0E0,0E0,0E0,0E0,0E0,0E0,0E0,0E0,0E0,0E0,0E0,0E0,0E0,0E0,0E0,0E0,0E0,0E0,0E0,0E0,0E0,0E0,0E0,0E0],"parents":[2147483647,0,0,1,1,2,2,3,3,4,4,5,5,6,6,7,7,8,8,9,9,10,10,11,11,12,12,13,13,14,14,17,17,18,18,20,20,21,21,22,22,23,23,24,24,25,25,26,26,27,27,28,28,30,30,31,31,35,35,36,36,37,37,38,38,39,39,41,41,42,42,43,43,44,44,45,45,46,46,47,47,48,48,49,49,50,50,51,51,52,52],"right_children":[2,4,6,8,10,12,14,16,18,20,22,24,26,28,30,-1,-1,32,34,-1,36,38,40,42,44,46,48,50,52,-1,54,56,-1,-1,-1,58,60,62,64,66,-1,68,70,72,74,76,78,80,82,84,86,88,90,-1,-1,-1,-1,-1,-1,-1,-1,-1,-1,-1,-1,-1,-1,-1,-1,-1,-1,-1,-1,-1,-1,-1,-1,-1,-1,-1,-1,-1,-1,-1,-1,-1,-1,-1,-1,-1,-1],"split_conditions":[-1.387434E0,-7.169556E-1,7.6962465E-1,-7.785942E-1,-2.0260096E0,-5.589767E-1,4.079014E0,-5.9577197E-1,1.7370577E-1,-2.6573231E0,-6.716677E-2,9.021038E-2,5.0961965E-1,1.1913028E0,1.1232419E0,-1.851306E-2,7.0984885E-2,4.407376E-1,6.686578E-1,6.524646E-2,9.231781E-1,-3.5461703E-1,1.4892243E0,-3.0913904E-1,1.1697341E0,-6.897332E-2,-1.1252188E-1,-1.4431316E0,-2.686003E-1,7.0421085E-2,1.096647E0,-4.2381114E-1,-4.836018E-2,-7.460206E-2,1.249859E-2,-1.229366E0,-5.7164294E-1,-3.9429155E-1,-8.655401E-1,1.9986013E0,-3.196117E-2,-8.2004917E-1,1.2071674E0,9.755852E-2,-9.8441964E-1,5.3326176E-3,1.3564941E0,5.045401E-1,2.2473161E0,6.1300987E-1,-2.8594568E-1,8.3870476E-1,1.0602186E0,-3.196117E-2,3.4728467E-2,6.151671E-2,-1.5750628E-2,6.524646E-2,-1.851306E-2,1.8334052E-2,-6.715932E-2,5.367566E-2,1.3485822E-2,5.487109E-2,-5.3462923E-2,7.570087E-2,1.8334052E-2,-3.4980446E-2,3.1773563E-2,-3.809731E-2,-8.9724053E-4,4.3545138E-2,-9.573137E-3,-6.0660917E-2,2.3132078E-3,-9.458989E-3,1.1252819E-2,2.1414643E-2,-2.2239238E-2,2.8962975E-2,-9.245556E-3,-1.8982807E-2,5.487109E-2,4.1085374E-2,-4.3887496E-2,-2.6977569E-2,-7.3146904E-3,1.9854724E-2,-6.0660917E-2,-7.2759114E-2,-7.0574507E-3],"split_indices":[20,28,18,19,32,28,23,13,31,12,14,22,24,33,31,0,0,22,22,0,28,33,31,20,22,24,28,24,31,0,21,13,0,0,0,15,4,1,23,4,0,20,21,4,6,14,20,32,19,11,24,22,31,0,0,0,0,0,0,0,0,0,0,0,0,0,0,0,0,0,0,0,0,0,0,0,0,0,0,0,0,0,0,0,0,0,0,0,0,0,0],"split_type":[0,0,0,0,0,0,0,0,0,0,0,0,0,0,0,0,0,0,0,0,0,0,0,0,0,0,0,0,0,0,0,0,0,0,0,0,0,0,0,0,0,0,0,0,0,0,0,0,0,0,0,0,0,0,0,0,0,0,0,0,0,0,0,0,0,0,0,0,0,0,0,0,0,0,0,0,0,0,0,0,0,0,0,0,0,0,0,0,0,0,0],"sum_hessian":[9.1668134E2,9.1443275E1,8.252381E2,1.4990701E1,7.6452576E1,6.0587415E2,2.1936392E2,3.7476752E0,1.1243026E1,1.249225E1,6.3960323E1,1.2941972E2,4.7645444E2,2.131178E2,6.246125E0,1.49907E0,2.248605E0,6.7458153E0,4.49721E0,1.7489151E0,1.0743336E1,4.6721016E1,1.7239305E1,8.994421E1,3.9475513E1,3.6652264E2,1.0993181E2,1.8713391E2,2.5983881E1,3.7476752E0,2.49845E0,4.747055E0,1.9987601E0,3.2479851E0,1.249225E0,3.2479851E0,7.4953504E0,3.7726597E1,8.99442E0,1.5990081E1,1.249225E0,2.7732796E1,6.2211407E1,2.3485432E1,1.5990081E1,1.9687787E2,1.6964476E2,3.0730936E1,7.920087E1,1.29919405E1,1.7414197E2,1.049349E1,1.5490391E1,1.249225E0,1.249225E0,1.49907E0,3.2479851E0,1.7489151E0,1.49907E0,1.9987601E0,5.49659E0,1.8488531E1,1.9238066E1,3.2479851E0,5.746435E0,1.3991321E1,1.9987601E0,1.1742716E1,1.5990081E1,4.7720398E1,1.4491011E1,1.5990081E1,7.4953504E0,2.99814E0,1.29919405E1,9.5440796E1,1.0143707E2,1.5740236E2,1.2242406E1,1.8738377E1,1.199256E1,7.595288E1,3.2479851E0,1.1243026E1,1.7489151E0,6.2711098E1,1.1143088E2,7.4953504E0,2.99814E0,1.099318E1,4.49721E0],"tree_param":{"num_deleted":"0","num_feature":"35","num_nodes":"91","size_leaf_vector":"1"}},{"base_weights":[-8.0745E-3,7.4579775E-2,-2.2164884E-1,-2.2825335E-1,1.4755507E-1,6.1142623E-1,-2.535785E-1,4.6275386E-1,-3.1304124E-1,9.4668376E-1,1.2143825E-1,-4.3395814E-2,1.0433424E0,-5.6867075E-1,-1.5576363E-1,-4.3052863E-2,7.1190566E-1,-4.8885003E-1,6.934721E-2,1.1766238E0,-2.5998053E-1,2.996158E-1,2.6794297E-3,7.2287E-2,-3.141016E-2,-6.1497476E-2,-8.272193E-1,5.2134305E-1,-2.2093992E-1,-1.1578707E-1,1.2604933E0,1.7039245E-1,-6.0614085E-1,6.071426E-1,-1.7172912E-1,3.8427022E-1,8.3365045E-2,-5.440064E-2,3.4180816E-2,3.5483617E-1,-4.0648124E-1,-9.2119E-2,2.6536027E-1,-5.2553284E-1,5.158145E-1,-9.5195526E-1,4.0217358E-1,7.1599114E-1,-5.3648293E-2,-5.9595913E-2,-4.181719E-1,-3.424175E-2,5.6801893E-2,-9.438943E-3,7.8403756E-2,6.023413E-2,-1.9729005E-2,1.4514476E-2,-3.4321114E-2,5.4297782E-2,-2.0264631E-2,-6.263661E-2,1.6655149E-3,-2.235499E-2,4.496021E-2,1.38353305E-2,4.495434E-2,-5.5234384E-2,1.704275E-2,-1.3071871E-2,8.120383E-3,1.5244385E-3,3.7567705E-2,4.693007E-2,-4.3358445E-2,-3.8114134E-2,4.2030994E-2,-8.545241E-3,-5.572216E-2,6.54185E-2,-3.7808023E-2,-9.728799E-3,5.9486967E-2,6.909421E-2,-5.4225717E-3,-2.938219E-2,6.579503E-3],"categories":[],"categories_nodes":[],"categories_segments":[],"categories_sizes":[],"default_left":[0,0,0,0,0,0,0,0,0,0,0,0,0,0,0,0,0,0,0,0,0,0,0,0,0,0,0,0,0,0,0,0,0,0,0,0,0,0,0,0,0,0,0,0,0,0,0,0,0,0,0,0,0,0,0,0,0,0,0,0,0,0,0,0,0,0,0,0,0,0,0,0,0,0,0,0,0,0,0,0,0,0,0,0,0,0,0],"id":1,"left_children":[1,3,5,7,9,11,13,15,17,19,21,-1,23,25,27,-1,29,31,33,35,37,39,41,-1,-1,43,45,47,49,51,53,55,57,59,61,63,-1,-1,-1,65,67,69,71,73,75,77,79,81,-1,83,85,-1,-1,-1,-1,-1,-1,-1,-1,-1,-1,-1,-1,-1,-1,-1,-1,-1,-1,-1,-1,-1,-1,-1,-1,-1,-1,-1,-1,-1,-1,-1,-1,-1,-1,-1,-1],"loss_changes":[1.6195597E1,1.465316E1,6.9640408E0,7.69411E0,1.102339E1,7.1302257E0,7.5314474E0,5.39085E0,7.7895746E0,4.9512863E0,1.0958917E1,0E0,6.2855854E0,7.579727E0,8.502148E0,0E0,5.930123E0,6.2237244E0,4.9286523E0,4.897112E0,3.4775E0,8.220818E0,7.7888355E0,0E0,0E0,5.824205E0,6.281082E0,6.039065E0,5.514082E0,5.0474944E0,3.7485895E0,7.9177675E0,5.051098E0,6.130333E0,5.9094048E0,3.290346E0,0E0,0E0,0E0,7.943077E0,8.4594E0,9.948443E0,9.444708E0,6.8099422E0,4.684881E0,4.278927E0,5.4462724E0,7.0198507E0,0E0,6.974479E0,7.358859E0,0E0,0E0,0E0,0E0,0E0,0E0,0E0,0E0,0E0,0E0,0E0,0E0,0E0,0E0,0E0,0E0,0E0,0E0,0E0,0E0,0E0,0E0,0E0,0E0,0E0,0E0,0E0,0E0,0E0,0E0,0E0,0E0,0E0,0E0,0E0,0E0],"parents":[2147483647,0,0,1,1,2,2,3,3,4,4,5,5,6,6,7,7,8,8,9,9,10,10,12,12,13,13,14,14,16,16,17,17,18,18,19,19,20,20,21,21,22,22,25,25,26,26,27,27,28,28,29,29,30,30,31,31,32,32,33,33,34,34,35,35,39,39,40,40,41,41,42,42,43,43,44,44,45,45,46,46,47,47,49,49,50,50],"right_children":[2,4,6,8,10,12,14,16,18,20,22,-1,24,26,28,-1,30,32,34,36,38,40,42,-1,-1,44,46,48,50,52,54,56,58,60,62,64,-1,-1,-1,66,68,70,72,74,76,78,80,82,-1,84,86,-1,-1,-1,-1,-1,-1,-1,-1,-1,-1,-1,-1,-1,-1,-1,-1,-1,-1,-1,-1,-1,-1,-1,-1,-1,-1,-1,-1,-1,-1,-1,-1,-1,-1,-1,-1],"split_conditions":[7.564952E-1,-5.8992517E-1,-2.218105E0,-2.9955977E-1,-2.099174E0,-8.854575E-1,9.366659E-1,-8.0877405E-1,1.11836985E-1,-1.2199677E-1,-2.516856E-1,-4.3395814E-2,-6.852019E-1,6.598713E-1,9.429992E-1,-4.3052863E-2,-5.2001613E-1,-2.0660344E-1,-6.855809E-1,-2.6492986E-1,1.6405951E0,7.4104E-1,9.2488974E-1,7.2287E-2,-3.141016E-2,-9.998527E-2,9.260739E-1,1.2586972E0,-9.491925E-2,-3.770917E-1,-8.6290574E-1,-7.487232E-1,-9.7400993E-1,-7.320717E-1,-4.8372436E-1,-9.18802E-1,8.3365045E-2,-5.440064E-2,3.4180816E-2,2.9264727E-1,4.8796615E-1,1.1156367E-1,1.2453579E0,-5.8486044E-1,-1.2216239E0,-1.0870287E0,3.3508036E-3,-3.2172513E-1,-5.3648293E-2,-1.3880994E0,1.1839356E0,-3.424175E-2,5.6801893E-2,-9.438943E-3,7.8403756E-2,6.023413E-2,-1.9729005E-2,1.4514476E-2,-3.4321114E-2,5.4297782E-2,-2.0264631E-2,-6.263661E-2,1.6655149E-3,-2.235499E-2,4.496021E-2,1.38353305E-2,4.495434E-2,-5.5234384E-2,1.704275E-2,-1.3071871E-2,8.120383E-3,1.5244385E-3,3.7567705E-2,4.693007E-2,-4.3358445E-2,-3.8114134E-2,4.2030994E-2,-8.545241E-3,-5.572216E-2,6.54185E-2,-3.7808023E-2,-9.728799E-3,5.9486967E-2,6.909421E-2,-5.4225717E-3,-2.938219E-2,6.579503E-3],"split_indices":[18,28,13,32,26,31,18,31,24,3,25,0,11,16,8,0,26,33,25,22,25,32,11,0,0,13,15,26,31,11,28,19,31,28,11,0,0,0,0,24,13,31,4,33,28,15,24,33,0,26,31,0,0,0,0,0,0,0,0,0,0,0,0,0,0,0,0,0,0,0,0,0,0,0,0,0,0,0,0,0,0,0,0,0,0,0,0],"split_type":[0,0,0,0,0,0,0,0,0,0,0,0,0,0,0,0,0,0,0,0,0,0,0,0,0,0,0,0,0,0,0,0,0,0,0,0,0,0,0,0,0,0,0,0,0,0,0,0,0,0,0,0,0,0,0,0,0,0,0,0,0,0,0,0,0,0,0,0,0,0,0,0,0,0,0,0,0,0,0,0,0,0,0,0,0,0,0],"sum_hessian":[9.15514E2,6.605347E2,2.5497923E2,1.2785088E2,5.3268384E2,8.742037E0,2.462372E2,1.3485827E1,1.1436505E2,1.5742514E1,5.1694135E2,1.7474486E0,6.994588E0,5.7191566E1,1.8904562E2,1.747093E0,1.1738734E1,7.815412E1,3.6210934E1,1.3243709E1,2.498805E0,2.0614008E2,3.1080124E2,5.746338E0,1.24825E0,1.9728891E1,3.7462673E1,1.5984641E1,1.7306099E2,4.99355E0,6.7451844E0,1.173634E1,6.641778E1,1.073801E1,2.5472923E1,5.746808E0,7.496901E0,1.2493861E0,1.249419E0,1.9164958E2,1.4490496E1,2.2885829E2,8.1942955E1,1.0987212E1,8.741679E0,3.4216675E1,3.2460015E0,1.4736393E1,1.2482482E0,9.590712E1,7.715387E1,3.74438E0,1.2491698E0,1.2485383E0,5.496646E0,3.7461011E0,7.990239E0,5.244235E0,6.1173542E1,7.240927E0,3.4970832E0,3.2465968E0,2.2226328E1,2.2484226E0,3.4983852E0,1.689102E2,2.2739382E1,7.244283E0,7.246212E0,1.3741727E2,9.144103E1,5.5960873E1,2.5982082E1,1.7480975E0,9.239115E0,1.4984486E0,7.2432303E0,6.2458386E0,2.7970835E1,1.7485421E0,1.4974594E0,5.24484E0,9.491553E0,2.249536E0,9.3657585E1,5.892156E1,1.823231E1],"tree_param":{"num_deleted":"0","num_feature":"35","num_nodes":"87","size_leaf_vector":"1"}},{"base_weights":[1.4045867E-2,4.028633E-1,-2.9923327E-2,-1.4758593E-1,6.527607E-1,4.4232212E-2,-2.002268E-1,5.1742804E-1,-3.7014285E-1,-8.959783E-2,8.0148417E-1,7.7278866E-3,5.351229E-1,-2.3407015E-1,9.38664E-1,-3.217256E-1,1.1588544E0,1.588676E-1,-8.7956876E-1,6.184587E-1,-5.3504384E-1,3.0794377E-2,1.0196003E0,2.5787753E-1,-6.667453E-2,6.0502535E-1,-3.811262E-2,-6.1486E-1,-1.5852834E-1,-9.895849E-3,1.1976238E0,-4.284274E-2,1.9732635E-2,7.160704E-2,1.0921965E-2,5.311591E-1,-5.1787246E-2,2.7716825E-2,-1.1786429E0,9.538224E-1,-1.0754018E-2,-9.954537E-1,3.078285E-1,7.367134E-1,-5.4273415E-1,1.1032674E0,-3.7665747E-2,4.026429E-1,-1.5159093E-1,-1.6775954E-1,1.984888E-1,3.3633098E-1,1.1109283E0,-8.579096E-1,-5.0517768E-2,-1.1920604E-1,-8.839904E-1,1.0624347E-2,7.005705E-2,4.073393E-2,-2.563633E-2,-3.074192E-4,-7.310789E-2,1.2465364E-2,6.0297556E-2,-6.702701E-2,-1.447922E-2,3.4613855E-2,-1.0668008E-2,6.0420703E-2,-3.1945214E-2,-5.145399E-2,5.509613E-2,3.4051314E-2,7.484802E-2,9.7273954E-4,3.776434E-2,-2.5314873E-2,2.023319E-2,-1.8339733E-2,-3.1538766E-3,2.3169067E-2,-6.1194575E-3,4.1907113E-2,-7.276906E-3,-6.588803E-3,6.9169454E-2,1.2396016E-2,-5.389586E-2,9.431708E-3,-5.7700228E-2,-1.8986693E-2,-5.4891506E-4,8.7327E-3,-6.914208E-2],"categories":[],"categories_nodes":[],"categories_segments":[],"categories_sizes":[],"default_left":[0,0,0,0,0,0,0,0,0,0,0,0,0,0,0,0,0,0,0,0,0,0,0,0,0,0,0,0,0,0,0,0,0,0,0,0,0,0,0,0,0,0,0,0,0,0,0,0,0,0,0,0,0,0,0,0,0,0,0,0,0,0,0,0,0,0,0,0,0,0,0,0,0,0,0,0,0,0,0,0,0,0,0,0,0,0,0,0,0,0,0,0,0,0,0],"id":2,"left_children":[1,3,5,7,9,11,13,15,17,19,21,23,25,27,29,31,33,35,37,39,41,43,45,47,49,51,-1,53,55,-1,57,-1,-1,-1,-1,59,-1,-1,61,63,-1,65,67,69,71,73,-1,75,77,79,81,83,85,87,89,91,93,-1,-1,-1,-1,-1,-1,-1,-1,-1,-1,-1,-1,-1,-1,-1,-1,-1,-1,-1,-1,-1,-1,-1,-1,-1,-1,-1,-1,-1,-1,-1,-1,-1,-1,-1,-1,-1,-1],"loss_changes":[1.5843174E1,1.3046944E1,1.052707E1,4.663008E0,7.2411404E0,1.0407864E1,9.96465E0,4.674917E0,6.397167E0,4.0328903E0,9.079369E0,1.0101703E1,4.107153E0,6.9883804E0,2.4432611E0,1.9656274E0,9.0723705E-1,5.992814E0,5.7916155E0,1.6018506E0,3.3104331E0,5.657636E0,7.0926247E0,7.4362297E0,1.1248552E1,4.8876295E0,0E0,5.5022507E0,5.796843E0,0E0,9.546871E-1,0E0,0E0,0E0,0E0,3.3746984E0,0E0,0E0,3.3929071E0,3.649125E-1,0E0,8.8880014E-1,8.486886E-1,4.8246913E0,7.3257513E0,5.7487984E0,0E0,1.2443474E1,6.760357E0,6.299885E0,9.911533E0,6.5813775E0,4.5811768E0,7.127363E0,3.709998E0,5.5623055E0,5.777216E0,0E0,0E0,0E0,0E0,0E0,0E0,0E0,0E0,0E0,0E0,0E0,0E0,0E0,0E0,0E0,0E0,0E0,0E0,0E0,0E0,0E0,0E0,0E0,0E0,0E0,0E0,0E0,0E0,0E0,0E0,0E0,0E0,0E0,0E0,0E0,0E0,0E0,0E0],"parents":[2147483647,0,0,1,1,2,2,3,3,4,4,5,5,6,6,7,7,8,8,9,9,10,10,11,11,12,12,13,13,14,14,15,15,16,16,17,17,18,18,19,19,20,20,21,21,22,22,23,23,24,24,25,25,27,27,28,28,30,30,35,35,38,38,39,39,41,41,42,42,43,43,44,44,45,45,47,47,48,48,49,49,50,50,51,51,52,52,53,53,54,54,55,55,56,56],"right_children":[2,4,6,8,10,12,14,16,18,20,22,24,26,28,30,32,34,36,38,40,42,44,46,48,50,52,-1,54,56,-1,58,-1,-1,-1,-1,60,-1,-1,62,64,-1,66,68,70,72,74,-1,76,78,80,82,84,86,88,90,92,94,-1,-1,-1,-1,-1,-1,-1,-1,-1,-1,-1,-1,-1,-1,-1,-1,-1,-1,-1,-1,-1,-1,-1,-1,-1,-1,-1,-1,-1,-1,-1,-1,-1,-1,-1,-1,-1,-1],"split_conditions":[-1.387434E0,-1.5762042E0,6.831987E-1,-9.947514E-1,-1.0796509E0,5.440228E-1,4.079014E0,-4.5494425E-1,-8.642279E-2,-4.7905385E-1,-1.2928596E0,-7.5121844E-1,7.1046144E-1,-7.9888743E-1,-7.091931E-1,-6.359065E-1,-4.6973872E-1,1.2650352E0,-2.3245227E0,-2.6185924E-1,-4.941596E-1,-5.7164294E-1,1.6772605E0,5.3451043E-1,1.4905606E-1,-2.5509048E-1,-3.811262E-2,1.4799905E-1,1.478682E0,-9.895849E-3,4.5412436E-2,-4.284274E-2,1.9732635E-2,7.160704E-2,1.0921965E-2,4.2282966E-1,-5.1787246E-2,2.7716825E-2,-2.3008246E0,-9.838093E-1,-1.0754018E-2,-1.5472157E0,-8.266855E-1,-9.15199E-1,1.8617529E0,-2.967552E-1,-3.7665747E-2,-3.2811258E-2,-5.7301974E-1,-1.774595E-1,2.2858945E-1,-2.535852E-1,-1.2765081E0,-9.7981386E-2,1.4741541E0,-2.84127E-1,8.639721E-1,1.0624347E-2,7.005705E-2,4.073393E-2,-2.563633E-2,-3.074192E-4,-7.310789E-2,1.2465364E-2,6.0297556E-2,-6.702701E-2,-1.447922E-2,3.4613855E-2,-1.0668008E-2,6.0420703E-2,-3.1945214E-2,-5.145399E-2,5.509613E-2,3.4051314E-2,7.484802E-2,9.7273954E-4,3.776434E-2,-2.5314873E-2,2.023319E-2,-1.8339733E-2,-3.1538766E-3,2.3169067E-2,-6.1194575E-3,4.1907113E-2,-7.276906E-3,-6.588803E-3,6.9169454E-2,1.2396016E-2,-5.389586E-2,9.431708E-3,-5.7700228E-2,-1.8986693E-2,-5.4891506E-4,8.7327E-3,-6.914208E-2],"split_indices":[20,12,3,3,22,1,23,4,4,29,32,21,5,19,30,27,33,3,14,27,27,4,31,27,19,22,0,24,27,0,15,0,0,0,0,23,0,0,11,11,0,20,12,15,30,13,0,24,20,24,27,20,21,15,1,15,7,0,0,0,0,0,0,0,0,0,0,0,0,0,0,0,0,0,0,0,0,0,0,0,0,0,0,0,0,0,0,0,0,0,0,0,0,0,0],"split_type":[0,0,0,0,0,0,0,0,0,0,0,0,0,0,0,0,0,0,0,0,0,0,0,0,0,0,0,0,0,0,0,0,0,0,0,0,0,0,0,0,0,0,0,0,0,0,0,0,0,0,0,0,0,0,0,0,0,0,0,0,0,0,0,0,0,0,0,0,0,0,0,0,0,0,0,0,0,0,0,0,0,0,0,0,0,0,0,0,0,0,0,0,0,0,0],"sum_hessian":[9.250136E2,9.3148E1,8.318656E2,2.9212038E1,6.3935966E1,5.8003864E2,2.5182697E2,6.992647E0,2.221939E1,1.07374E1,5.3198566E1,5.4083594E2,3.9202682E1,2.4533116E2,6.4958034E0,3.2453287E0,3.7473185E0,1.1237754E1,1.0981637E1,3.9964538E0,6.7409463E0,1.1986553E1,4.1212013E1,1.2341942E2,4.1741653E2,3.7704803E1,1.4978771E0,3.9430622E1,2.0590054E2,1.249118E0,5.2466855E0,1.7454203E0,1.4999083E0,2.4983978E0,1.2489206E0,8.991116E0,2.2466385E0,1.7478919E0,9.233746E0,2.7469497E0,1.2495041E0,4.242501E0,2.4984455E0,5.24558E0,6.7409725E0,3.9715473E1,1.4965374E0,9.119469E1,3.2224728E1,3.0247498E2,1.1494154E2,2.571298E1,1.1991826E1,2.71972E1,1.2233422E1,1.9641837E2,9.482171E0,1.2482977E0,3.9983876E0,7.2433825E0,1.7477331E0,1.9969435E0,7.2368016E0,1.2481352E0,1.4988145E0,2.2455564E0,1.9969447E0,1.248925E0,1.2495205E0,3.9966671E0,1.2489132E0,5.491389E0,1.2495836E0,2.048011E1,1.9235365E1,4.4210293E1,4.6984398E1,1.9732027E1,1.2492698E1,1.0339086E2,1.9908412E2,6.2720306E1,5.2221237E1,1.2233665E1,1.3479314E1,2.2492507E0,9.742575E0,4.4920106E0,2.2705189E1,1.0735779E1,1.4976431E0,5.6911438E1,1.3950693E2,3.2452028E0,6.236968E0],"tree_param":{"num_deleted":"0","num_feature":"35","num_nodes":"95","size_leaf_vector":"1"}},{"base_weights":[3.140943E-4,1.0211521E0,-2.0130858E-2,2.7405104E-1,1.3647302E0,5.9707966E-2,-2.3385803E-1,5.2189793E-2,-3.1017473E-1,8.004642E-2,4.0253487E-1,1.24967724E-1,-2.3750085E-1,-2.6081857E-1,8.497166E-1,-4.868045E-2,2.633248E-2,-3.141091E-2,5.841718E-2,-2.4087759E-2,3.0316764E-1,3.298421E-1,-3.9261347E-1,-3.0211395E-1,3.3316323E-1,-8.162583E-3,6.401061E-2,-2.310594E-1,1.5873165E-1,6.1782676E-1,1.1840792E-1,7.068963E-1,-2.796871E-1,-5.444617E-1,3.314159E-1,-9.59582E-2,-4.1276023E-1,1.2071017E0,-2.6135353E-2,3.3820972E-3,-2.224004E-2,1.4174728E-3,2.6132753E-2,4.1736517E-2,5.1260884E-3,-1.2116754E-2,1.4607209E-2,5.418506E-2,-6.6534947E-3,2.1639278E-2,-5.1939853E-2,3.2396164E-2,-3.0859044E-2,6.787959E-2,-1.7599236E-3,3.2423155E-3,-4.6951797E-2,-3.1354573E-2,-1.0854843E-2,7.380618E-2,1.2602568E-2,5.9431136E-2,-1.5017903E-2],"categories":[],"categories_nodes":[],"categories_segments":[],"categories_sizes":[],"default_left":[0,0,0,0,0,0,0,0,0,0,0,0,0,0,0,0,0,0,0,0,0,0,0,0,0,0,0,0,0,0,0,0,0,0,0,0,0,0,0,0,0,0,0,0,0,0,0,0,0,0,0,0,0,0,0,0,0,0,0,0,0,0,0],"id":3,"left_children":[1,3,5,7,9,11,13,-1,15,-1,17,19,21,23,25,-1,-1,-1,-1,27,29,31,33,35,37,-1,-1,39,41,43,45,47,49,51,53,55,57,59,61,-1,-1,-1,-1,-1,-1,-1,-1,-1,-1,-1,-1,-1,-1,-1,-1,-1,-1,-1,-1,-1,-1,-1,-1],"loss_changes":[1.9351318E1,4.2989254E0,1.5524855E1,3.4653955E0,2.1325111E0,1.2880963E1,7.4495792E0,0E0,3.145693E0,0E0,3.6894622E0,1.4455365E1,1.0657858E1,6.0408936E0,2.930736E0,0E0,0E0,0E0,0E0,1.127921E1,1.4334454E1,6.2260056E0,1.0559879E1,5.1373672E0,5.124028E0,0E0,0E0,8.953162E0,7.4991107E0,1.0135418E1,9.934395E0,5.3629627E0,6.2588415E0,7.1995316E0,6.4391575E0,1.0983816E1,6.0448017E0,8.473778E-1,4.511495E0,0E0,0E0,0E0,0E0,0E0,0E0,0E0,0E0,0E0,0E0,0E0,0E0,0E0,0E0,0E0,0E0,0E0,0E0,0E0,0E0,0E0,0E0,0E0,0E0],"parents":[2147483647,0,0,1,1,2,2,3,3,4,4,5,5,6,6,8,8,10,10,11,11,12,12,13,13,14,14,19,19,20,20,21,21,22,22,23,23,24,24,27,27,28,28,29,29,30,30,31,31,32,32,33,33,34,34,35,35,36,36,37,37,38,38],"right_children":[2,4,6,8,10,12,14,-1,16,-1,18,20,22,24,26,-1,-1,-1,-1,28,30,32,34,36,38,-1,-1,40,42,44,46,48,50,52,54,56,58,60,62,-1,-1,-1,-1,-1,-1,-1,-1,-1,-1,-1,-1,-1,-1,-1,-1,-1,-1,-1,-1,-1,-1,-1,-1],"split_conditions":[-2.099174E0,-2.5509048E-1,7.888448E-1,3.8571137E-1,-1.2199677E-1,7.435857E-1,4.079014E0,5.2189793E-2,-1.0079267E-1,8.004642E-2,1.9897658E0,-6.897332E-2,-4.6132228E-1,1.0952933E0,-5.974321E-1,-4.868045E-2,2.633248E-2,-3.141091E-2,5.841718E-2,-2.83618E-1,-1.079277E-1,-3.166155E-1,1.6120757E0,-3.381711E-1,1.730399E-1,-8.162583E-3,6.401061E-2,-2.0130308E-1,8.512829E-2,3.386433E-1,-6.5661526E-1,1.0882126E0,1.0586973E-1,-9.2686516E-1,-1.1002492E-1,5.0163853E-1,-6.897332E-2,2.961461E-1,-5.6407183E-1,3.3820972E-3,-2.224004E-2,1.4174728E-3,2.6132753E-2,4.1736517E-2,5.1260884E-3,-1.2116754E-2,1.4607209E-2,5.418506E-2,-6.6534947E-3,2.1639278E-2,-5.1939853E-2,3.2396164E-2,-3.0859044E-2,6.787959E-2,-1.7599236E-3,3.2423155E-3,-4.6951797E-2,-3.1354573E-2,-1.0854843E-2,7.380618E-2,1.2602568E-2,5.9431136E-2,-1.5017903E-2],"split_indices":[26,22,18,29,3,26,23,0,14,0,23,24,19,29,4,0,0,0,0,19,33,29,12,33,19,0,0,21,31,26,23,24,33,31,31,25,24,26,26,0,0,0,0,0,0,0,0,0,0,0,0,0,0,0,0,0,0,0,0,0,0,0,0],"split_type":[0,0,0,0,0,0,0,0,0,0,0,0,0,0,0,0,0,0,0,0,0,0,0,0,0,0,0,0,0,0,0,0,0,0,0,0,0,0,0,0,0,0,0,0,0,0,0,0,0,0,0,0,0,0,0,0,0,0,0,0,0,0,0],"sum_hessian":[9.252027E2,1.7204752E1,9.079979E2,5.985999E0,1.1218754E1,6.615816E2,2.4641637E2,2.2434795E0,3.7425196E0,8.474595E0,2.744159E0,5.42944E2,1.1863763E2,2.4117496E2,5.241399E0,1.9963536E0,1.746166E0,1.2463202E0,1.4978387E0,2.9611942E2,2.4682452E2,2.5229877E1,9.340775E1,2.2595712E2,1.5217838E1,1.7483245E0,3.4930744E0,1.3876189E2,1.5735754E2,9.044546E1,1.5637906E2,1.5488787E1,9.741091E0,7.7418945E1,1.5988807E1,7.956995E1,1.4638718E2,3.7461934E0,1.1471645E1,5.8163097E1,8.0598785E1,1.1664518E2,4.0712364E1,6.3216373E1,2.7229084E1,5.0703773E1,1.0567529E2,1.0491967E1,4.996819E0,5.246653E0,4.4944377E0,3.9954298E0,7.3423515E1,3.497116E0,1.2491691E1,6.759944E1,1.1970503E1,6.880868E1,7.75785E1,2.4971814E0,1.2490121E0,1.4985993E0,9.973046E0],"tree_param":{"num_deleted":"0","num_feature":"35","num_nodes":"63","size_leaf_vector":"1"}},{"base_weights":[2.2121688E-2,1.8699282E-1,-5.873098E-2,2.2271006E-1,-7.648275E-1,-7.3725805E-2,9.4040364E-1,2.9304755E-1,-9.751682E-2,-1.1186428E0,3.3816388E-1,-5.0591063E-1,-4.7514338E-2,-2.1445E-2,7.208342E-2,3.9890394E-1,-6.474241E-2,6.728916E-1,-3.2944775E-1,-1.3250123E0,-1.4067798E-2,3.5500832E-2,-9.188717E-3,-7.635466E-1,2.3919958E-1,2.215572E-2,-2.3535147E-1,7.1925676E-1,1.8878974E-1,-2.1727636E-1,6.1738485E-1,1.0968696E-2,1.173553E0,-5.166532E-1,4.400655E-1,-2.4786187E-2,-7.580965E-2,3.6470702E-1,-9.679846E-1,-2.0772393E-1,8.645459E-1,1.1460612E-1,-1.870698E-1,-4.2768463E-1,5.0231107E-2,4.0429294E-2,-1.0474932E-2,3.0451093E-2,2.4028274E-3,2.1867279E-2,-1.9301614E-2,4.254452E-2,-3.0885968E-2,5.551165E-2,-2.3118755E-2,7.5309396E-2,-1.1743004E-2,-5.3923376E-2,-8.256837E-3,-3.9023325E-2,4.001969E-2,-5.170566E-2,5.7900142E-2,-6.342096E-2,3.4313109E-3,2.6114477E-2,-3.5915535E-2,6.573024E-2,1.186784E-3,3.1074919E-3,3.445491E-2,-4.358947E-2,-5.5951234E-3,-2.4066968E-2,1.8359834E-2,1.5295896E-2,-2.0571494E-2],"categories":[],"categories_nodes":[],"categories_segments":[],"categories_sizes":[],"default_left":[0,0,0,0,0,0,0,0,0,0,0,0,0,0,0,0,0,0,0,0,0,0,0,0,0,0,0,0,0,0,0,0,0,0,0,0,0,0,0,0,0,0,0,0,0,0,0,0,0,0,0,0,0,0,0,0,0,0,0,0,0,0,0,0,0,0,0,0,0,0,0,0,0,0,0,0,0],"id":4,"left_children":[1,3,5,7,9,11,13,15,17,19,21,23,25,-1,-1,27,29,31,33,35,-1,-1,-1,37,39,41,43,45,47,49,51,53,55,57,59,-1,-1,61,63,65,67,69,71,73,75,-1,-1,-1,-1,-1,-1,-1,-1,-1,-1,-1,-1,-1,-1,-1,-1,-1,-1,-1,-1,-1,-1,-1,-1,-1,-1,-1,-1,-1,-1,-1,-1],"loss_changes":[1.2315875E1,1.050414E1,9.359745E0,6.644953E0,4.756721E0,6.907342E0,6.9616194E0,9.157192E0,9.8083105E0,1.135087E0,8.0836797E-1,6.879134E0,7.569099E0,0E0,0E0,1.2396828E1,5.950999E0,4.2102137E0,6.264624E0,3.1562614E-1,0E0,0E0,0E0,6.3869143E0,2.8972957E0,8.1942835E0,8.615553E0,6.2584305E0,6.700799E0,5.297865E0,3.5472357E0,3.8940485E0,3.7483892E0,6.569703E0,4.468692E0,0E0,0E0,6.4565578E0,7.0694485E0,2.7895043E0,1.5758228E0,8.806768E0,6.586379E0,4.1687546E0,7.66421E0,0E0,0E0,0E0,0E0,0E0,0E0,0E0,0E0,0E0,0E0,0E0,0E0,0E0,0E0,0E0,0E0,0E0,0E0,0E0,0E0,0E0,0E0,0E0,0E0,0E0,0E0,0E0,0E0,0E0,0E0,0E0,0E0],"parents":[2147483647,0,0,1,1,2,2,3,3,4,4,5,5,6,6,7,7,8,8,9,9,10,10,11,11,12,12,15,15,16,16,17,17,18,18,19,19,23,23,24,24,25,25,26,26,27,27,28,28,29,29,30,30,31,31,32,32,33,33,34,34,37,37,38,38,39,39,40,40,41,41,42,42,43,43,44,44],"right_children":[2,4,6,8,10,12,14,16,18,20,22,24,26,-1,-1,28,30,32,34,36,-1,-1,-1,38,40,42,44,46,48,50,52,54,56,58,60,-1,-1,62,64,66,68,70,72,74,76,-1,-1,-1,-1,-1,-1,-1,-1,-1,-1,-1,-1,-1,-1,-1,-1,-1,-1,-1,-1,-1,-1,-1,-1,-1,-1,-1,-1,-1,-1,-1,-1],"split_conditions":[-6.2692106E-1,4.099401E-1,2.71001E0,5.1151025E-1,1.1430899E0,-9.615277E-1,1.5879077E-1,-8.7862864E-2,-2.9989097E-1,1.0280173E-1,4.168788E0,7.462161E-2,3.5012126E-1,-2.1445E-2,7.208342E-2,-3.3909753E-1,2.065808E-1,-5.914787E-1,-1.1010403E-1,-6.466161E-2,-1.4067798E-2,3.5500832E-2,-9.188717E-3,-8.13571E-1,1.4799905E-1,6.647335E-1,4.8796615E-1,1.3491518E0,-7.207837E-1,-5.494365E-1,-6.5774727E-1,-8.484066E-1,-4.1615924E-1,-2.7379242E-1,-9.821182E-1,-2.4786187E-2,-7.580965E-2,-1.6946193E0,1.4433746E-1,-7.6557624E-1,3.249302E-1,4.0224835E-1,-1.1449748E0,2.3379738E0,8.3771044E-1,4.0429294E-2,-1.0474932E-2,3.0451093E-2,2.4028274E-3,2.1867279E-2,-1.9301614E-2,4.254452E-2,-3.0885968E-2,5.551165E-2,-2.3118755E-2,7.5309396E-2,-1.1743004E-2,-5.3923376E-2,-8.256837E-3,-3.9023325E-2,4.001969E-2,-5.170566E-2,5.7900142E-2,-6.342096E-2,3.4313109E-3,2.6114477E-2,-3.5915535E-2,6.573024E-2,1.186784E-3,3.1074919E-3,3.445491E-2,-4.358947E-2,-5.5951234E-3,-2.4066968E-2,1.8359834E-2,1.5295896E-2,-2.0571494E-2],"split_indices":[21,32,12,26,32,28,26,15,25,12,28,23,25,0,0,16,15,25,15,23,0,0,0,12,24,8,13,28,30,4,21,25,12,14,22,0,0,12,26,30,12,8,29,23,15,0,0,0,0,0,0,0,0,0,0,0,0,0,0,0,0,0,0,0,0,0,0,0,0,0,0,0,0,0,0,0,0],"split_type":[0,0,0,0,0,0,0,0,0,0,0,0,0,0,0,0,0,0,0,0,0,0,0,0,0,0,0,0,0,0,0,0,0,0,0,0,0,0,0,0,0,0,0,0,0,0,0,0,0,0,0,0,0,0,0,0,0,0,0,0,0,0,0,0,0,0,0,0,0,0,0,0,0,0,0,0,0],"sum_hessian":[9.2207886E2,3.0296777E2,6.191111E2,2.9274838E2,1.0219418E1,6.108695E2,8.241607E0,2.4009634E2,5.265203E1,7.726679E0,2.4927385E0,3.3883533E1,5.7698596E2,2.247227E0,5.9943795E0,1.851906E2,5.490574E1,1.1743201E1,4.090883E1,5.7315054E0,1.9951736E0,1.245232E0,1.2475065E0,2.515944E1,8.724094E0,4.2152246E2,1.5546349E2,7.2392876E1,1.1279772E2,4.5428673E1,9.477065E0,5.497233E0,6.2459683E0,3.3168316E1,7.7405157E0,1.7469003E0,3.9846048E0,3.7392576E0,2.1420181E1,5.4773555E0,3.2467394E0,2.9265802E2,1.2886444E2,9.260117E1,6.2862305E1,6.615899E1,6.233885E0,2.7463545E1,8.533418E1,8.984656E0,3.644402E1,8.231852E0,1.2452141E0,1.2496388E0,4.2475944E0,4.9964895E0,1.2494786E0,1.1969658E1,2.1198656E1,1.498544E0,6.2419715E0,1.2433283E0,2.495929E0,1.6433685E1,4.986496E0,2.2448509E0,3.2325046E0,1.7477353E0,1.4990041E0,2.69187E2,2.3471008E1,1.1698813E1,1.17165634E2,8.711532E1,5.485859E0,4.0673183E1,2.2189123E1],"tree_param":{"num_deleted":"0","num_feature":"35","num_nodes":"77","size_leaf_vector":"1"}},{"base_weights":[-2.5599555E-3,3.7360018E-1,-4.517143E-2,-1.878826E-1,6.1875796E-1,-2.0629081E-1,7.834985E-2,6.5378964E-1,-4.662142E-1,7.897763E-1,9.53674E-3,1.0929862E0,-2.22919E-1,2.4436873E-1,-6.0614172E-2,-1.7353358E-2,1.0631176E0,3.2016405E-1,-1.0817561E0,4.2937967E-1,1.0341111E0,-8.795003E-1,3.6771977E-1,1.0216354E-2,6.754132E-2,-1.6405855E-1,-5.4332644E-1,-1.5475795E-1,3.2675576E-1,-1.11491255E-1,6.233562E-1,7.410782E-2,-1.2291478E-2,-3.9176E-2,5.8390975E-1,-1.410855E0,-7.188293E-2,7.636697E-1,-1.0894617E-1,1.1877564E0,2.9688308E-1,-5.9612866E-2,-1.4909173E-2,-4.7053978E-2,7.3315054E-1,-1.9544612E-1,1.0635847E0,-5.8960523E-2,-8.331087E-1,3.1921005E-1,-4.761754E-1,-1.03366725E-1,4.2842782E-1,1.4967898E-1,-2.3506631E-1,9.219758E-1,-2.764705E-1,5.0317228E-2,-1.1106964E-2,-2.2299066E-2,-8.204348E-2,5.371153E-2,-4.5509033E-2,8.493245E-3,6.4655654E-2,2.7614877E-2,-5.2812736E-2,-2.7862561E-3,6.356891E-2,5.608054E-2,-2.4969397E-2,5.169935E-2,-1.436632E-2,-2.454595E-2,-4.621113E-3,-1.0916615E-2,7.72599E-2,-3.0722797E-2,2.6946789E-2,-4.6360604E-2,3.7222657E-2,3.9491367E-2,-3.5065543E-2,2.2455027E-2,-4.1721E-2,-1.8940816E-2,3.3814292E-2,2.7245972E-2,-3.2942293E-3,1.3058131E-2,-4.47167E-2,-1.7208777E-2,5.7171267E-3,5.823939E-2,1.9514356E-3,2.7474582E-2,-4.2318985E-2],"categories":[],"categories_nodes":[],"categories_segments":[],"categories_sizes":[],"default_left":[0,0,0,0,0,0,0,0,0,0,0,0,0,0,0,0,0,0,0,0,0,0,0,0,0,0,0,0,0,0,0,0,0,0,0,0,0,0,0,0,0,0,0,0,0,0,0,0,0,0,0,0,0,0,0,0,0,0,0,0,0,0,0,0,0,0,0,0,0,0,0,0,0,0,0,0,0,0,0,0,0,0,0,0,0,0,0,0,0,0,0,0,0,0,0,0,0],"id":5,"left_children":[1,3,5,7,9,11,13,15,17,19,21,23,25,27,29,-1,31,33,35,37,39,41,43,-1,-1,45,47,49,51,53,55,-1,-1,-1,57,59,61,63,65,67,69,-1,-1,-1,71,73,75,77,79,81,83,85,87,89,91,93,95,-1,-1,-1,-1,-1,-1,-1,-1,-1,-1,-1,-1,-1,-1,-1,-1,-1,-1,-1,-1,-1,-1,-1,-1,-1,-1,-1,-1,-1,-1,-1,-1,-1,-1,-1,-1,-1,-1,-1,-1],"loss_changes":[1.4839081E1,1.3083342E1,1.6564896E1,7.1915536E0,6.848528E0,8.045507E0,1.0890434E1,3.5324266E0,1.1322433E1,4.0793877E0,5.2387385E0,8.0838585E-1,6.650942E0,7.1201286E0,9.027058E0,0E0,3.5053596E0,3.580284E0,4.2017555E0,4.1259413E0,3.0346317E0,5.04045E-1,6.2896028E0,0E0,0E0,1.1896969E1,7.6752224E0,5.8592916E0,7.851589E0,7.7951465E0,5.084529E0,0E0,0E0,0E0,3.3669548E0,1.4235725E0,5.0476766E0,4.176649E0,6.522456E0,2.6093826E0,4.822569E0,0E0,0E0,0E0,3.279447E0,8.984488E0,5.1022825E0,7.530372E0,5.7905617E0,8.112427E0,7.9078064E0,7.759276E0,8.361895E0,9.293019E0,6.2764854E0,2.8972197E0,2.9353642E0,0E0,0E0,0E0,0E0,0E0,0E0,0E0,0E0,0E0,0E0,0E0,0E0,0E0,0E0,0E0,0E0,0E0,0E0,0E0,0E0,0E0,0E0,0E0,0E0,0E0,0E0,0E0,0E0,0E0,0E0,0E0,0E0,0E0,0E0,0E0,0E0,0E0,0E0,0E0,0E0],"parents":[2147483647,0,0,1,1,2,2,3,3,4,4,5,5,6,6,7,7,8,8,9,9,10,10,11,11,12,12,13,13,14,14,16,16,17,17,18,18,19,19,20,20,21,21,22,22,25,25,26,26,27,27,28,28,29,29,30,30,34,34,35,35,36,36,37,37,38,38,39,39,40,40,44,44,45,45,46,46,47,47,48,48,49,49,50,50,51,51,52,52,53,53,54,54,55,55,56,56],"right_children":[2,4,6,8,10,12,14,16,18,20,22,24,26,28,30,-1,32,34,36,38,40,42,44,-1,-1,46,48,50,52,54,56,-1,-1,-1,58,60,62,64,66,68,70,-1,-1,-1,72,74,76,78,80,82,84,86,88,90,92,94,96,-1,-1,-1,-1,-1,-1,-1,-1,-1,-1,-1,-1,-1,-1,-1,-1,-1,-1,-1,-1,-1,-1,-1,-1,-1,-1,-1,-1,-1,-1,-1,-1,-1,-1,-1,-1,-1,-1,-1,-1],"split_conditions":[-1.387434E0,-1.5762042E0,-6.897332E-2,-9.947514E-1,4.2188153E-1,-2.540069E0,-3.0840725E-1,-5.480852E-1,-2.0912914E0,-3.9725608E-1,-1.2928596E0,3.0448215E0,1.1012738E0,-1.20052E0,2.0395067E0,-1.7353358E-2,-2.672029E-1,-1.0250689E0,-6.670902E-1,-4.7883493E-1,-2.3127237E-1,1.1192458E0,-5.521529E-1,1.0216354E-2,6.754132E-2,1.0299499E0,-6.610745E-1,-2.981921E-1,-6.396962E-1,-4.6132228E-1,2.7621696E0,7.410782E-2,-1.2291478E-2,-3.9176E-2,4.9800007E-3,-6.5471345E-1,-2.0775623E0,-6.591944E-1,-2.0517509E-1,-7.4544126E-1,-7.267556E-1,-5.9612866E-2,-1.4909173E-2,-4.7053978E-2,1.3292532E0,-5.710178E-1,-1.0008501E0,1.8182416E0,3.939731E0,-1.2752122E0,-1.9739233E-1,-1.1320109E-2,1.2345124E0,1.8476441E0,1.2055779E0,8.793109E-1,5.828025E-1,5.0317228E-2,-1.1106964E-2,-2.2299066E-2,-8.204348E-2,5.371153E-2,-4.5509033E-2,8.493245E-3,6.4655654E-2,2.7614877E-2,-5.2812736E-2,-2.7862561E-3,6.356891E-2,5.608054E-2,-2.4969397E-2,5.169935E-2,-1.436632E-2,-2.454595E-2,-4.621113E-3,-1.0916615E-2,7.72599E-2,-3.0722797E-2,2.6946789E-2,-4.6360604E-2,3.7222657E-2,3.9491367E-2,-3.5065543E-2,2.2455027E-2,-4.1721E-2,-1.8940816E-2,3.3814292E-2,2.7245972E-2,-3.2942293E-3,1.3058131E-2,-4.47167E-2,-1.7208777E-2,5.7171267E-3,5.823939E-2,1.9514356E-3,2.7474582E-2,-4.2318985E-2],"split_indices":[20,12,24,3,31,26,23,30,12,13,32,25,5,7,12,0,15,31,33,30,33,23,23,0,0,6,4,19,19,19,30,0,0,0,23,4,14,4,31,30,25,0,0,0,31,19,19,6,23,9,4,13,20,0,12,31,33,0,0,0,0,0,0,0,0,0,0,0,0,0,0,0,0,0,0,0,0,0,0,0,0,0,0,0,0,0,0,0,0,0,0,0,0,0,0,0,0],"split_type":[0,0,0,0,0,0,0,0,0,0,0,0,0,0,0,0,0,0,0,0,0,0,0,0,0,0,0,0,0,0,0,0,0,0,0,0,0,0,0,0,0,0,0,0,0,0,0,0,0,0,0,0,0,0,0,0,0,0,0,0,0,0,0,0,0,0,0,0,0,0,0,0,0,0,0,0,0,0,0,0,0,0,0,0,0,0,0,0,0,0,0,0,0,0,0,0,0],"sum_hessian":[9.237268E2,9.320204E1,8.305247E2,2.8397385E1,6.4804665E1,3.6011972E2,4.7040503E2,6.7217903E0,2.1675594E1,5.036891E1,1.4435748E1,3.732627E0,3.563871E2,2.1399223E2,2.564128E2,1.9952548E0,4.7265353E0,9.727811E0,1.19477825E1,2.1465052E1,2.890386E1,3.7277484E0,1.0708E1,1.2425554E0,2.4900718E0,3.0235498E2,5.4032093E1,3.646378E1,1.7752844E2,2.3943913E2,1.697367E1,3.4801073E0,1.2464281E0,1.4961604E0,8.23165E0,8.71173E0,3.2360525E0,1.2983775E1,8.4812765E0,2.3413216E1,5.4906445E0,1.7404187E0,1.9873296E0,1.9933841E0,8.714616E0,2.9563715E2,6.7178583E0,2.0675997E1,3.3356094E1,1.4737889E1,2.1725891E1,3.3937897E1,1.4359056E2,7.683681E1,1.6260234E2,1.2725821E1,4.247849E0,5.2380166E0,2.9936342E0,2.242736E0,6.4689937E0,1.2481499E0,1.9879026E0,6.742483E0,6.241292E0,5.2403626E0,3.2409139E0,1.4963043E0,2.1916912E1,2.496425E0,2.9942198E0,6.720248E0,1.9943676E0,7.545804E1,2.201791E2,1.9839133E0,4.733945E0,1.0703686E1,9.972311E0,3.1867418E1,1.4886775E0,1.0241182E1,4.4967074E0,5.9931474E0,1.5732744E1,2.5457823E1,8.480073E0,1.1612233E2,2.7468225E1,7.0101006E1,6.7358007E0,1.239208E2,3.8681534E1,9.730665E0,2.995155E0,1.7489475E0,2.4989014E0],"tree_param":{"num_deleted":"0","num_feature":"35","num_nodes":"97","size_leaf_vector":"1"}},{"base_weights":[-1.8731564E-2,-4.4208315E-1,1.0226793E-2,-5.449663E-1,5.5940056E-1,7.666286E-1,-5.516212E-3,-6.2986267E-1,6.003418E-1,1.1008853E0,-2.409841E-2,-5.291061E-1,1.0955954E0,3.812781E-2,-2.2075862E-1,-2.8537968E-1,-8.301905E-1,5.0468665E-2,-1.063979E-2,6.7468E-2,1.3924117E-2,-6.002214E-2,2.0899018E-2,1.2481589E0,-1.4493482E-2,4.7765065E-2,-1.0060636E0,-2.7486703E-1,8.717099E-1,5.517413E-1,-6.5616316E-1,-7.453602E-2,-5.741526E-1,7.374086E-2,4.83497E-3,2.9643578E-2,5.9228647E-1,1.22815315E-2,-6.756738E-2,-8.4844553E-1,-2.0531435E-1,1.1296991E0,-8.741167E-3,4.6216287E-2,-3.0262087E-2,-1.5356381E-2,-6.52712E-2,-3.626394E-2,3.7435055E-2,-5.9615443E-3,4.618462E-3,-1.3179946E-2,4.8778437E-2,-5.6978215E-2,2.5500447E-2,1.530208E-2,-1.505896E-2,7.534253E-2,8.378786E-3],"categories":[],"categories_nodes":[],"categories_segments":[],"categories_sizes":[],"default_left":[0,0,0,0,0,0,0,0,0,0,0,0,0,0,0,0,0,0,0,0,0,0,0,0,0,0,0,0,0,0,0,0,0,0,0,0,0,0,0,0,0,0,0,0,0,0,0,0,0,0,0,0,0,0,0,0,0,0,0],"id":6,"left_children":[1,3,5,7,9,11,13,15,17,19,-1,21,23,25,27,29,31,-1,-1,-1,-1,-1,-1,33,-1,35,37,39,41,43,45,-1,47,-1,-1,49,51,-1,-1,53,55,57,-1,-1,-1,-1,-1,-1,-1,-1,-1,-1,-1,-1,-1,-1,-1,-1,-1],"loss_changes":[1.128555E1,6.3773375E0,1.0271887E1,5.623993E0,3.90484E0,8.076293E0,7.952574E0,3.2630024E0,1.6234149E0,4.9093294E-1,0E0,3.1946635E0,3.3953686E0,7.1319737E0,8.675533E0,6.6233425E0,4.4788685E0,0E0,0E0,0E0,0E0,0E0,0E0,3.2806835E0,0E0,6.874564E0,3.1337848E0,5.28078E0,2.0805645E0,3.4629025E0,2.8706965E0,0E0,5.412794E0,0E0,0E0,6.333205E0,7.6195903E0,0E0,0E0,6.30305E0,6.134931E0,1.8264103E0,0E0,0E0,0E0,0E0,0E0,0E0,0E0,0E0,0E0,0E0,0E0,0E0,0E0,0E0,0E0,0E0,0E0],"parents":[2147483647,0,0,1,1,2,2,3,3,4,4,5,5,6,6,7,7,8,8,9,9,11,11,12,12,13,13,14,14,15,15,16,16,23,23,25,25,26,26,27,27,28,28,29,29,30,30,32,32,35,35,36,36,39,39,40,40,41,41],"right_children":[2,4,6,8,10,12,14,16,18,20,-1,22,24,26,28,30,32,-1,-1,-1,-1,-1,-1,34,-1,36,38,40,42,44,46,-1,48,-1,-1,50,52,-1,-1,54,56,58,-1,-1,-1,-1,-1,-1,-1,-1,-1,-1,-1,-1,-1,-1,-1,-1,-1],"split_conditions":[-9.3441033E-1,1.5132117E0,-2.037936E0,8.581287E-1,-9.948994E-1,-2.0260096E0,7.362169E-1,-1.5726557E-1,1.6161513E-1,1.816816E0,-2.409841E-2,-1.3908418E0,1.4892243E0,3.4034283E0,2.9168396E0,5.8497393E-1,-3.6136892E-1,5.0468665E-2,-1.063979E-2,6.7468E-2,1.3924117E-2,-6.002214E-2,2.0899018E-2,-7.5605243E-1,-1.4493482E-2,5.9693366E-1,-7.267556E-1,-1.9369225E-1,1.9216546E0,-5.064483E-1,-1.0805537E0,-7.453602E-2,1.2395027E0,7.374086E-2,4.83497E-3,-2.8594568E-1,-6.211426E-1,1.22815315E-2,-6.756738E-2,1.91994E0,6.479978E-1,1.3810204E0,-8.741167E-3,4.6216287E-2,-3.0262087E-2,-1.5356381E-2,-6.52712E-2,-3.626394E-2,3.7435055E-2,-5.9615443E-3,4.618462E-3,-1.3179946E-2,4.8778437E-2,-5.6978215E-2,2.5500447E-2,1.530208E-2,-1.505896E-2,7.534253E-2,8.378786E-3],"split_indices":[28,3,27,15,28,32,23,33,32,2,0,12,31,31,32,16,13,0,0,0,0,0,0,24,0,23,25,3,7,25,28,0,18,0,0,24,4,0,0,24,5,27,0,0,0,0,0,0,0,0,0,0,0,0,0,0,0,0,0],"split_type":[0,0,0,0,0,0,0,0,0,0,0,0,0,0,0,0,0,0,0,0,0,0,0,0,0,0,0,0,0,0,0,0,0,0,0,0,0,0,0,0,0,0,0,0,0,0,0,0,0,0,0,0,0,0,0,0,0,0,0],"sum_hessian":[9.191817E2,5.7935646E1,8.612461E2,5.2951717E1,4.983928E0,1.6587193E1,8.446589E2,4.971651E1,3.235205E0,3.2413552E0,1.7425729E0,3.2353616E0,1.3351831E1,7.029473E2,1.4171155E2,1.9172358E1,3.0544155E1,1.9918936E0,1.2433112E0,1.9971873E0,1.244168E0,1.7367588E0,1.4986027E0,1.2116682E1,1.2351502E0,6.974644E2,5.4829187E0,1.3573708E2,5.9744678E0,5.7354164E0,1.343694E1,7.185262E0,2.3358892E1,9.88922E0,2.2274616E0,6.760211E2,2.144331E1,1.2478676E0,4.235051E0,1.3468457E1,1.22268616E2,4.7291737E0,1.2452943E0,4.4904437E0,1.2449727E0,9.696988E0,3.7399526E0,2.1369337E1,1.9895569E0,2.0012923E2,4.758919E2,6.7291327E0,1.4714177E1,1.1224222E1,2.244235E0,1.8957E1,1.0331162E2,2.9906647E0,1.7385089E0],"tree_param":{"num_deleted":"0","num_feature":"35","num_nodes":"59","size_leaf_vector":"1"}},{"base_weights":[6.059575E-3,3.8867426E-1,-3.687062E-2,5.5985034E-1,-9.164459E-2,2.0869859E-2,-1.959988E-1,3.107592E-1,1.038286E0,-3.138043E-1,5.601151E-2,-3.1178302E-1,7.2673686E-2,-8.6493474E-1,-1.5904367E-1,-8.817564E-1,4.0434036E-1,1.164925E0,-1.4889021E-2,4.7158517E-2,-4.8289254E-1,5.7554264E-2,-5.3498673E-1,2.0170862E-2,3.107805E-1,3.3858418E-1,-1.2368442E0,4.3709528E-1,-2.1120504E-1,-8.348441E-3,-5.8533054E-2,4.9014467E-1,-4.7325514E-2,1.2961841E0,-2.626101E-3,-3.2707356E-2,3.155994E-2,1.9820774E-1,-9.831388E-1,3.127213E-1,-3.7066925E-1,-7.5207704E-1,5.0401572E-2,-2.7565652E-1,8.8570096E-2,4.98851E-1,1.7457332E-2,-8.475427E-3,3.4707837E-2,-7.502697E-2,-4.508502E-3,5.9144133E-1,-3.630606E-2,-1.1587585E0,-1.7543967E-1,2.7891267E-2,-4.0592123E-2,6.259999E-3,7.038369E-2,-5.49494E-2,2.6427317E-2,-9.407929E-3,-6.965433E-2,-4.046912E-2,2.5534008E-2,1.3986904E-3,-6.118049E-2,5.2986923E-3,-4.7893148E-2,6.8945825E-2,-1.4628701E-2,1.0928684E-2,-2.8422682E-2,6.474486E-3,-3.0438563E-2,4.658531E-2,1.0945878E-2,-3.17291E-2,1.29156625E-2,-1.899253E-2,3.8889695E-2,-6.76472E-2,-7.398044E-3,5.3058363E-2,-9.869759E-3],"categories":[],"categories_nodes":[],"categories_segments":[],"categories_sizes":[],"default_left":[0,0,0,0,0,0,0,0,0,0,0,0,0,0,0,0,0,0,0,0,0,0,0,0,0,0,0,0,0,0,0,0,0,0,0,0,0,0,0,0,0,0,0,0,0,0,0,0,0,0,0,0,0,0,0,0,0,0,0,0,0,0,0,0,0,0,0,0,0,0,0,0,0,0,0,0,0,0,0,0,0,0,0,0,0],"id":7,"left_children":[1,3,5,7,9,11,13,15,17,19,-1,21,23,25,27,29,31,33,35,-1,37,39,41,43,45,47,49,51,53,-1,-1,55,-1,57,-1,-1,-1,59,61,63,65,67,69,71,73,75,77,-1,-1,-1,-1,79,-1,81,83,-1,-1,-1,-1,-1,-1,-1,-1,-1,-1,-1,-1,-1,-1,-1,-1,-1,-1,-1,-1,-1,-1,-1,-1,-1,-1,-1,-1,-1,-1],"loss_changes":[1.5295421E1,7.7749224E0,7.698009E0,7.9478035E0,7.228015E0,1.0626465E1,5.3762293E0,5.608808E0,3.1293983E0,5.209035E0,0E0,6.8815174E0,6.659773E0,5.5445166E0,6.702975E0,5.7665944E-1,5.6016674E0,3.3985672E0,1.8551297E0,0E0,7.137036E0,3.6350763E0,6.632909E0,8.886312E0,5.3018513E0,7.4790233E-1,2.5749063E0,3.558928E0,6.4445553E0,0E0,0E0,4.1835938E0,0E0,2.2849522E0,0E0,0E0,0E0,4.634672E0,3.6209736E0,5.0166597E0,4.278685E0,6.7971077E0,7.22733E0,1.2061241E1,1.0250772E1,6.8991327E0,6.2330875E0,0E0,0E0,0E0,0E0,3.1806083E0,0E0,1.1652355E0,5.3736115E0,0E0,0E0,0E0,0E0,0E0,0E0,0E0,0E0,0E0,0E0,0E0,0E0,0E0,0E0,0E0,0E0,0E0,0E0,0E0,0E0,0E0,0E0,0E0,0E0,0E0,0E0,0E0,0E0,0E0,0E0],"parents":[2147483647,0,0,1,1,2,2,3,3,4,4,5,5,6,6,7,7,8,8,9,9,11,11,12,12,13,13,14,14,15,15,16,16,17,17,18,18,20,20,21,21,22,22,23,23,24,24,25,25,26,26,27,27,28,28,31,31,33,33,37,37,38,38,39,39,40,40,41,41,42,42,43,43,44,44,45,45,46,46,51,51,53,53,54,54],"right_children":[2,4,6,8,10,12,14,16,18,20,-1,22,24,26,28,30,32,34,36,-1,38,40,42,44,46,48,50,52,54,-1,-1,56,-1,58,-1,-1,-1,60,62,64,66,68,70,72,74,76,78,-1,-1,-1,-1,80,-1,82,84,-1,-1,-1,-1,-1,-1,-1,-1,-1,-1,-1,-1,-1,-1,-1,-1,-1,-1,-1,-1,-1,-1,-1,-1,-1,-1,-1,-1,-1,-1],"split_conditions":[-1.387434E0,3.1808898E-1,7.888448E-1,-3.26166E-1,2.1517475E0,-1.1725568E0,-1.1932262E0,-7.2745365E-1,-1.9838046E-1,-2.193112E0,5.601151E-2,-2.515852E-1,3.8878742E-1,-2.218105E0,-9.926374E-1,-1.3401595E0,3.649714E-1,5.366382E-1,-1.5472157E0,4.7158517E-2,-5.83826E-1,5.269978E-1,5.9594226E-1,-5.8992517E-1,3.0459183E-1,-6.8170375E-1,-4.8460484E-1,2.8200953E0,-1.0775564E0,-8.348441E-3,-5.8533054E-2,-8.213444E-1,-4.7325514E-2,-1.3159199E0,-2.626101E-3,-3.2707356E-2,3.155994E-2,-1.6397171E0,-1.4071583E0,-7.169556E-1,-1.2527941E0,-1.2360691E0,-1.0883695E-1,1.6479393E-2,1.7945338E0,-7.367364E-2,-6.438945E-2,-8.475427E-3,3.4707837E-2,-7.502697E-2,-4.508502E-3,-8.644417E-1,-3.630606E-2,8.371075E-3,-1.6397171E0,2.7891267E-2,-4.0592123E-2,6.259999E-3,7.038369E-2,-5.49494E-2,2.6427317E-2,-9.407929E-3,-6.965433E-2,-4.046912E-2,2.5534008E-2,1.3986904E-3,-6.118049E-2,5.2986923E-3,-4.7893148E-2,6.8945825E-2,-1.4628701E-2,1.0928684E-2,-2.8422682E-2,6.474486E-3,-3.0438563E-2,4.658531E-2,1.0945878E-2,-3.17291E-2,1.29156625E-2,-1.899253E-2,3.8889695E-2,-6.76472E-2,-7.398044E-3,5.3058363E-2,-9.869759E-3],"split_indices":[20,31,18,13,25,6,11,4,33,11,0,14,6,13,13,32,24,22,20,0,22,28,28,28,26,4,14,15,14,0,0,11,0,11,0,0,0,26,33,28,2,22,25,21,26,21,15,0,0,0,0,33,0,26,26,0,0,0,0,0,0,0,0,0,0,0,0,0,0,0,0,0,0,0,0,0,0,0,0,0,0,0,0,0,0],"split_type":[0,0,0,0,0,0,0,0,0,0,0,0,0,0,0,0,0,0,0,0,0,0,0,0,0,0,0,0,0,0,0,0,0,0,0,0,0,0,0,0,0,0,0,0,0,0,0,0,0,0,0,0,0,0,0,0,0,0,0,0,0,0,0,0,0,0,0,0,0,0,0,0,0,0,0,0,0,0,0,0,0,0,0,0,0],"sum_hessian":[9.293146E2,9.293946E1,8.363751E2,6.839815E1,2.4541315E1,6.143309E2,2.2204425E2,4.6064705E1,2.2333439E1,2.1365644E1,3.1756704E0,8.210212E1,5.3222876E2,1.0451607E1,2.1159264E2,2.7389953E0,4.332571E1,1.9841492E1,2.491947E0,1.9905132E0,1.9375132E1,3.120653E1,5.089559E1,4.3696268E2,9.526605E1,2.4884517E0,7.9631553E0,1.6430696E1,1.9516194E2,1.2425942E0,1.4964011E0,4.133718E1,1.9885268E0,1.7852095E1,1.9893979E0,1.2463238E0,1.245623E0,8.4601555E0,1.0914976E1,1.9723526E1,1.1483003E1,3.6919357E1,1.3976235E1,8.148953E1,3.5547314E2,5.7620644E1,3.7645412E1,1.2399353E0,1.2485164E0,6.223391E0,1.7397641E0,1.4939885E1,1.490812E0,5.9564037E0,1.8920554E2,3.9837864E1,1.4993175E0,1.7364978E0,1.6115597E1,1.2448686E0,7.2152867E0,4.2099414E0,6.7050347E0,2.4945955E0,1.722893E1,8.484679E0,2.9983234E0,7.2354083E0,2.9683949E1,2.2480335E0,1.1728202E1,3.041079E1,5.1078743E1,3.365395E2,1.8933651E1,2.1714954E1,3.590569E1,9.713786E0,2.7931625E1,2.2378094E0,1.2702076E1,4.7125745E0,1.2438295E0,2.4749596E0,1.8673058E2],"tree_param":{"num_deleted":"0","num_feature":"35","num_nodes":"85","size_leaf_vector":"1"}},{"base_weights":[-1.3252383E-2,5.178528E-1,-3.9899077E-2,-2.7107129E-1,7.254493E-1,-1.5539594E-1,2.2610158E-2,2.1139577E-1,-9.740149E-1,-5.0807333E-1,8.860369E-1,-1.7869949E-3,-3.330832E-1,-1.031772E0,3.360929E-2,-2.8872195E-1,5.8749616E-2,-8.129445E-3,-6.280507E-2,-8.7593234E-4,-4.2821582E-2,9.882417E-1,-2.7398769E-2,-6.3413846E-1,1.3064274E-1,-1.8987216E-1,-6.9661784E-1,-1.6215209E-2,-5.9740733E-2,1.4694697E-1,-7.896048E-2,-7.464505E-1,3.265327E-2,7.436916E-2,6.778428E-1,2.9493088E-1,-8.2638186E-1,2.563307E-1,-4.8100036E-1,-2.9131934E-1,5.181322E-1,4.746738E-1,-7.9483247E-1,5.410608E-1,4.6459794E-2,-1.5080944E-1,4.334339E-1,9.118627E-3,-6.1738815E-2,1.5666223E-3,5.155107E-2,-2.1602025E-2,6.2216867E-2,-4.688556E-2,3.4370694E-2,6.0741454E-2,8.952074E-3,2.6341489E-2,-3.3840053E-2,-1.6581524E-2,5.0822806E-2,1.4607477E-3,5.8499843E-2,4.2705934E-2,-7.914237E-3,-4.773453E-2,-5.4712496E-3,1.2927706E-2,4.1324597E-2,5.203016E-5,3.3935096E-2,7.799553E-3,-1.8061591E-2,6.769181E-2,1.1429399E-2],"categories":[],"categories_nodes":[],"categories_segments":[],"categories_sizes":[],"default_left":[0,0,0,0,0,0,0,0,0,0,0,0,0,0,0,0,0,0,0,0,0,0,0,0,0,0,0,0,0,0,0,0,0,0,0,0,0,0,0,0,0,0,0,0,0,0,0,0,0,0,0,0,0,0,0,0,0,0,0,0,0,0,0,0,0,0,0,0,0,0,0,0,0,0,0],"id":8,"left_children":[1,3,5,7,9,11,13,15,17,19,21,23,25,27,29,31,-1,-1,-1,-1,-1,33,-1,35,37,39,41,-1,-1,43,45,47,-1,-1,49,51,53,55,57,59,61,63,65,67,69,71,73,-1,-1,-1,-1,-1,-1,-1,-1,-1,-1,-1,-1,-1,-1,-1,-1,-1,-1,-1,-1,-1,-1,-1,-1,-1,-1,-1,-1],"loss_changes":[1.3125652E1,7.4539003E0,6.3762197E0,3.5834773E0,7.4530983E0,8.4632845E0,6.6868377E0,3.5812247E0,7.6437426E-1,7.895094E-1,5.17947E0,1.4094777E1,7.3529215E0,2.9922867E-1,7.266572E0,2.7426918E0,0E0,0E0,0E0,0E0,0E0,3.62368E0,0E0,5.449134E0,1.0822762E1,7.657868E0,5.0083904E0,0E0,0E0,1.1210518E1,1.0592187E1,2.033616E0,0E0,0E0,4.5961227E0,4.4949117E0,4.758539E0,8.38378E0,5.1068554E0,5.1901927E0,4.2552485E0,1.0335772E0,4.006153E0,4.4265785E0,6.522365E0,1.629365E1,6.3690524E0,0E0,0E0,0E0,0E0,0E0,0E0,0E0,0E0,0E0,0E0,0E0,0E0,0E0,0E0,0E0,0E0,0E0,0E0,0E0,0E0,0E0,0E0,0E0,0E0,0E0,0E0,0E0,0E0],"parents":[2147483647,0,0,1,1,2,2,3,3,4,4,5,5,6,6,7,7,8,8,9,9,10,10,11,11,12,12,13,13,14,14,15,15,21,21,23,23,24,24,25,25,26,26,29,29,30,30,31,31,34,34,35,35,36,36,37,37,38,38,39,39,40,40,41,41,42,42,43,43,44,44,45,45,46,46],"right_children":[2,4,6,8,10,12,14,16,18,20,22,24,26,28,30,32,-1,-1,-1,-1,-1,34,-1,36,38,40,42,-1,-1,44,46,48,-1,-1,50,52,54,56,58,60,62,64,66,68,70,72,74,-1,-1,-1,-1,-1,-1,-1,-1,-1,-1,-1,-1,-1,-1,-1,-1,-1,-1,-1,-1,-1,-1,-1,-1,-1,-1,-1,-1],"split_conditions":[-1.3880994E0,-4.1463908E-2,-1.774595E-1,-9.355055E-2,-2.863651E0,-4.27423E-1,-1.2216239E0,1.193996E-1,-3.4322804E-1,-3.5610434E-1,9.045692E-1,-9.933469E-1,4.1973054E-1,-6.897332E-2,2.961461E-1,-1.4959866E0,5.8749616E-2,-8.129445E-3,-6.280507E-2,-8.7593234E-4,-4.2821582E-2,-1.696266E0,-2.7398769E-2,-9.212534E-1,1.1463693E0,1.1491684E-1,-6.5661526E-1,-1.6215209E-2,-5.9740733E-2,-8.7650377E-1,1.5312394E0,-8.5551804E-1,3.265327E-2,7.436916E-2,-7.933366E-2,-1.2714359E0,7.3152274E-1,-9.217552E-1,-7.619425E-1,2.1369808E0,-1.0607748E-1,-3.8742536E-1,2.3059207E-1,-1.2101399E0,8.240106E-1,-3.3824158E-1,2.8677654E-1,9.118627E-3,-6.1738815E-2,1.5666223E-3,5.155107E-2,-2.1602025E-2,6.2216867E-2,-4.688556E-2,3.4370694E-2,6.0741454E-2,8.952074E-3,2.6341489E-2,-3.3840053E-2,-1.6581524E-2,5.0822806E-2,1.4607477E-3,5.8499843E-2,4.2705934E-2,-7.914237E-3,-4.773453E-2,-5.4712496E-3,1.2927706E-2,4.1324597E-2,5.203016E-5,3.3935096E-2,7.799553E-3,-1.8061591E-2,6.769181E-2,1.1429399E-2],"split_indices":[26,28,24,15,26,26,28,22,23,1,12,0,15,24,26,26,0,0,0,0,0,24,0,23,0,26,23,0,0,12,11,22,0,0,19,7,12,10,30,30,4,8,28,12,29,19,15,0,0,0,0,0,0,0,0,0,0,0,0,0,0,0,0,0,0,0,0,0,0,0,0,0,0,0,0],"split_type":[0,0,0,0,0,0,0,0,0,0,0,0,0,0,0,0,0,0,0,0,0,0,0,0,0,0,0,0,0,0,0,0,0,0,0,0,0,0,0,0,0,0,0,0,0,0,0,0,0,0,0,0,0,0,0,0,0,0,0,0,0,0,0,0,0,0,0,0,0,0,0,0,0,0,0],"sum_hessian":[9.250041E2,4.3311546E1,8.8169257E2,8.959024E0,3.435252E1,3.0909634E2,5.725962E2,5.727329E0,3.2316954E0,3.707815E0,3.0644705E1,1.6632234E2,1.4277402E2,4.953426E0,5.6764276E2,4.231501E0,1.4958274E0,1.2403086E0,1.9913868E0,1.9758011E0,1.732014E0,2.8896082E1,1.7486236E0,2.814441E1,1.3817793E2,1.0351683E2,3.9257187E1,1.4875944E0,3.4658318E0,2.8270444E2,2.8493832E2,2.9871123E0,1.2443889E0,9.625618E0,1.9270464E1,4.733639E0,2.341077E1,1.1510554E2,2.3072392E1,9.1058014E1,1.2458812E1,2.74057E0,3.651662E1,5.6545765E1,2.2615868E2,2.5051613E2,3.4422195E1,1.2452024E0,1.7419099E0,7.1926627E0,1.2077802E1,2.989489E0,1.7441496E0,2.2161499E1,1.2492701E0,7.4908013E0,1.0761474E2,3.4782763E0,1.9594114E1,8.905925E1,1.9987632E0,7.716233E0,4.7425785E0,1.4949646E0,1.2456055E0,2.9291952E1,7.224666E0,2.9376293E1,2.7169474E1,2.1193526E2,1.4223419E1,1.02022995E2,1.4849312E2,5.245292E0,2.9176905E1],"tree_param":{"num_deleted":"0","num_feature":"35","num_nodes":"75","size_leaf_vector":"1"}},{"base_weights":[-1.6898906E-2,5.0772786E-2,-2.057712E-1,1.0367601E-1,-2.0320334E-1,-5.816438E-1,-1.0992154E-1,-2.4176126E-2,2.563474E-1,-2.899333E-1,7.1448755E-1,4.1115636E-1,-7.338995E-1,-9.470321E-1,-6.2369924E-2,-2.544794E-1,1.3845164E-1,4.5066628E-1,4.705266E-2,-1.9263104E-1,-8.633586E-1,-1.725258E-2,9.29585E-1,9.454173E-1,-4.0647488E-2,-4.8560852E-1,-1.3453922E0,1.9285804E-2,-1.3064283E0,-2.0844886E-1,1.1646005E-1,-3.4792787E-1,4.12745E-1,3.3169243E-1,-1.5041572E-1,-5.052919E-1,5.1741016E-1,-3.182435E-1,2.1583009E-1,-3.0958027E-1,4.9796695E-1,-1.130547E0,3.7657127E-1,1.253955E0,2.0892994E-1,6.4218186E-2,1.176257E-3,2.9628593E-1,-6.6559815E-1,-8.169525E-2,-2.7465734E-1,-7.2920494E-2,-1.7861784E-2,1.1864589E-1,-3.3733025E-1,1.0611985E0,3.0777052E-2,-5.8653755E-3,-3.0287182E-2,-4.195718E-3,7.336063E-2,1.8726926E-2,-4.0769808E-2,-2.1026384E-2,1.3021084E-2,5.082796E-2,-4.3464135E-2,4.185142E-2,1.5455852E-2,-2.598595E-2,2.4461465E-2,-7.5603306E-4,3.0624017E-2,9.339481E-3,-2.335929E-2,-2.7604643E-2,5.26743E-2,-2.8634628E-2,-7.999515E-2,3.8034253E-2,-8.73211E-3,7.9615824E-2,1.9238293E-2,-2.6022652E-2,5.058617E-2,-5.9334993E-2,5.2549016E-2,-3.908047E-2,3.1323675E-2,3.8099248E-2,-5.4899044E-2,-1.1739271E-2,4.8515864E-2,6.1751284E-2,-1.9336676E-2,2.7369556E-3,6.628015E-2,3.361329E-2,-6.7005144E-3],"categories":[],"categories_nodes":[],"categories_segments":[],"categories_sizes":[],"default_left":[0,0,0,0,0,0,0,0,0,0,0,0,0,0,0,0,0,0,0,0,0,0,0,0,0,0,0,0,0,0,0,0,0,0,0,0,0,0,0,0,0,0,0,0,0,0,0,0,0,0,0,0,0,0,0,0,0,0,0,0,0,0,0,0,0,0,0,0,0,0,0,0,0,0,0,0,0,0,0,0,0,0,0,0,0,0,0,0,0,0,0,0,0,0,0,0,0,0,0],"id":9,"left_children":[1,3,5,7,9,11,13,15,17,19,21,23,25,27,29,31,33,35,37,39,41,-1,43,45,-1,47,49,-1,51,53,55,57,59,61,63,65,67,69,71,73,75,77,79,81,83,-1,-1,85,87,-1,89,-1,-1,91,93,95,97,-1,-1,-1,-1,-1,-1,-1,-1,-1,-1,-1,-1,-1,-1,-1,-1,-1,-1,-1,-1,-1,-1,-1,-1,-1,-1,-1,-1,-1,-1,-1,-1,-1,-1,-1,-1,-1,-1,-1,-1,-1,-1],"loss_changes":[1.18268175E1,9.176981E0,8.729075E0,1.1027355E1,9.5839405E0,7.762806E0,7.7312217E0,1.1578647E1,1.0448126E1,5.879154E0,2.7049718E0,5.479982E0,5.898773E0,5.5087986E0,4.88994E0,8.11914E0,1.0169758E1,8.771042E0,7.7786E0,7.739525E0,5.5379896E0,0E0,1.8340802E0,1.6813583E0,0E0,4.7368574E0,3.2266426E0,0E0,6.991005E-1,4.376853E0,6.7979717E0,6.6322956E0,8.592321E0,5.659481E0,8.249771E0,5.9854455E0,8.073711E0,6.749155E0,7.899249E0,6.418809E0,8.73932E0,2.4732456E0,8.708993E-1,1.1471157E0,2.858877E0,0E0,0E0,8.77719E0,4.4662504E0,0E0,4.0179787E0,0E0,0E0,9.203034E0,6.2303696E0,1.7867265E0,8.37728E0,0E0,0E0,0E0,0E0,0E0,0E0,0E0,0E0,0E0,0E0,0E0,0E0,0E0,0E0,0E0,0E0,0E0,0E0,0E0,0E0,0E0,0E0,0E0,0E0,0E0,0E0,0E0,0E0,0E0,0E0,0E0,0E0,0E0,0E0,0E0,0E0,0E0,0E0,0E0,0E0,0E0,0E0],"parents":[2147483647,0,0,1,1,2,2,3,3,4,4,5,5,6,6,7,7,8,8,9,9,10,10,11,11,12,12,13,13,14,14,15,15,16,16,17,17,18,18,19,19,20,20,22,22,23,23,25,25,26,26,28,28,29,29,30,30,31,31,32,32,33,33,34,34,35,35,36,36,37,37,38,38,39,39,40,40,41,41,42,42,43,43,44,44,47,47,48,48,50,50,53,53,54,54,55,55,56,56],"right_children":[2,4,6,8,10,12,14,16,18,20,22,24,26,28,30,32,34,36,38,40,42,-1,44,46,-1,48,50,-1,52,54,56,58,60,62,64,66,68,70,72,74,76,78,80,82,84,-1,-1,86,88,-1,90,-1,-1,92,94,96,98,-1,-1,-1,-1,-1,-1,-1,-1,-1,-1,-1,-1,-1,-1,-1,-1,-1,-1,-1,-1,-1,-1,-1,-1,-1,-1,-1,-1,-1,-1,-1,-1,-1,-1,-1,-1,-1,-1,-1,-1,-1,-1],"split_conditions":[7.888448E-1,7.135051E-1,9.146362E-1,-6.897332E-2,2.2092364E0,-7.2476655E-1,-1.2133487E0,-3.43107E-1,7.9224735E-2,1.5583193E0,-2.5065833E-1,5.0163853E-1,-3.7063196E-1,-9.711272E-1,3.3508036E-3,4.984449E-1,-3.9640802E-1,-1.3425983E0,-6.5661526E-1,1.5359437E0,2.4824493E0,-1.725258E-2,1.57936E0,8.689435E-1,-4.0647488E-2,6.831987E-1,7.6455647E-1,1.9285804E-2,2.0967069E0,-7.431274E-1,-5.6146506E-2,1.6479393E-2,-5.4846424E-1,8.030216E-1,1.6161513E-1,-2.6573231E0,-9.7434443E-1,-6.7574334E-1,2.4919834E-2,-4.6132228E-1,9.848085E-1,-2.9072065E-2,2.620872E-1,5.969454E-1,2.5119863E0,6.4218186E-2,1.176257E-3,6.7453104E-1,1.0914218E0,-8.169525E-2,9.149884E-1,-7.2920494E-2,-1.7861784E-2,-8.6687016E-1,9.047098E-1,-7.248345E-1,-7.517431E-1,-5.8653755E-3,-3.0287182E-2,-4.195718E-3,7.336063E-2,1.8726926E-2,-4.0769808E-2,-2.1026384E-2,1.3021084E-2,5.082796E-2,-4.3464135E-2,4.185142E-2,1.5455852E-2,-2.598595E-2,2.4461465E-2,-7.5603306E-4,3.0624017E-2,9.339481E-3,-2.335929E-2,-2.7604643E-2,5.26743E-2,-2.8634628E-2,-7.999515E-2,3.8034253E-2,-8.73211E-3,7.9615824E-2,1.9238293E-2,-2.6022652E-2,5.058617E-2,-5.9334993E-2,5.2549016E-2,-3.908047E-2,3.1323675E-2,3.8099248E-2,-5.4899044E-2,-1.1739271E-2,4.8515864E-2,6.1751284E-2,-1.9336676E-2,2.7369556E-3,6.628015E-2,3.361329E-2,-6.7005144E-3],"split_indices":[18,27,7,24,24,27,31,19,15,24,0,25,19,13,24,3,27,15,23,12,25,0,12,18,0,3,15,0,6,12,27,21,19,6,32,12,21,16,28,19,27,19,13,0,11,0,0,5,11,0,5,0,0,12,6,28,28,0,0,0,0,0,0,0,0,0,0,0,0,0,0,0,0,0,0,0,0,0,0,0,0,0,0,0,0,0,0,0,0,0,0,0,0,0,0,0,0,0,0],"split_type":[0,0,0,0,0,0,0,0,0,0,0,0,0,0,0,0,0,0,0,0,0,0,0,0,0,0,0,0,0,0,0,0,0,0,0,0,0,0,0,0,0,0,0,0,0,0,0,0,0,0,0,0,0,0,0,0,0,0,0,0,0,0,0,0,0,0,0,0,0,0,0,0,0,0,0,0,0,0,0,0,0,0,0,0,0,0,0,0,0,0,0,0,0,0,0,0,0,0,0],"sum_hessian":[9.2350397E2,6.8043854E2,2.4306546E2,5.6362683E2,1.1681169E2,4.8358845E1,1.9470662E2,3.0720483E2,2.56422E2,1.07350204E2,9.46149E0,6.204071E0,4.2154774E1,9.448956E0,1.8525766E2,1.2691332E2,1.8029152E2,1.3237018E2,1.24051834E2,9.291906E1,1.4431137E1,1.494691E0,7.966799E0,4.477524E0,1.7265475E0,3.125721E1,1.0897565E1,1.9913186E0,7.4576364E0,1.0187472E2,8.338294E1,1.11741806E2,1.5171511E1,1.07937416E2,7.23541E1,8.209969E0,1.2416021E2,3.8922882E1,8.512895E1,7.993432E1,1.2984747E1,1.19453E1,2.4858372E0,4.983626E0,2.9831727E0,2.9863634E0,1.4911603E0,5.7280064E0,2.5529203E1,8.170132E0,2.7274332E0,5.96592E0,1.4917166E0,2.8817276E1,7.305744E1,5.986856E0,7.739609E1,5.9749725E1,5.199208E1,1.0939414E1,4.232097E0,1.0470014E2,3.237275E0,4.3639194E1,2.8714907E1,1.23859E0,6.971379E0,4.779776E1,7.636245E1,3.1435627E1,7.487256E0,5.4410286E1,3.0718664E1,1.9219233E1,6.0715084E1,4.4947653E0,8.489982E0,6.4725256E0,5.4727745E0,1.2410153E0,1.2448219E0,2.9883513E0,1.9952745E0,1.7473261E0,1.2358464E0,1.7388047E0,3.9892018E0,2.3788387E1,1.7408152E0,1.2402908E0,1.4871424E0,2.0877668E1,7.939607E0,1.494459E0,7.156299E1,1.4966949E0,4.490161E0,1.5188861E1,6.2207226E1],"tree_param":{"num_deleted":"0","num_feature":"35","num_nodes":"99","size_leaf_vector":"1"}},{"base_weights":[-1.14768E-2,3.0518833E-1,-4.7674812E-2,-8.03235E-2,4.9691686E-1,-4.5117986E-1,-1.9722529E-2,7.526993E-1,-2.6190275E-1,7.6377475E-1,2.511058E-1,5.596001E-2,-7.2203785E-1,-6.44441E-2,2.3420104E-1,-5.465466E-4,5.6929786E-2,4.8668932E-2,-4.115063E-1,-2.8098134E-2,8.6707103E-1,-5.8954316E-1,4.5943084E-1,-3.6801985E-1,8.2218856E-1,3.0417848E-2,-8.2186097E-1,-4.6691716E-2,-9.899923E-1,5.3289294E-1,7.867833E-2,-6.1207E-1,4.5986483E-1,3.1704256E-1,1.1096336E0,5.6215823E-2,-1.137466E0,-5.581148E-1,7.186162E-1,-7.811176E-1,7.750106E-1,6.893524E-2,-6.7537755E-2,-2.5034282E-1,-1.0099009E0,-1.793845E-1,5.7112955E-2,-1.9801845E-1,-8.298471E-2,8.6046976E-1,1.8308082E-1,2.4230628E-1,-4.3339244E-1,-5.518943E-3,-4.0476162E-2,4.575676E-2,-2.7879125E-2,-3.382301E-2,2.692251E-2,-1.0513951E-2,6.2822975E-2,-1.6734924E-2,-7.264174E-2,3.1497277E-2,-4.9106326E-2,7.33533E-3,4.5116138E-2,1.1871033E-2,-5.103157E-2,4.8246543E-4,6.1548453E-2,3.393849E-2,-3.5562377E-2,-2.3948105E-2,3.449113E-2,-6.312154E-2,-2.2893647E-2,2.3218254E-2,-1.2135452E-2,9.977439E-3,-1.2831471E-2,3.271592E-2,-6.5911524E-2,2.8379392E-4,6.357914E-2,3.5407357E-2,-2.9372204E-2,-1.4374723E-2,1.9007448E-2,1.5761703E-2,-5.5149384E-2],"categories":[],"categories_nodes":[],"categories_segments":[],"categories_sizes":[],"default_left":[0,0,0,0,0,0,0,0,0,0,0,0,0,0,0,0,0,0,0,0,0,0,0,0,0,0,0,0,0,0,0,0,0,0,0,0,0,0,0,0,0,0,0,0,0,0,0,0,0,0,0,0,0,0,0,0,0,0,0,0,0,0,0,0,0,0,0,0,0,0,0,0,0,0,0,0,0,0,0,0,0,0,0,0,0,0,0,0,0,0,0],"id":10,"left_children":[1,3,5,7,9,11,13,15,17,19,21,23,25,27,29,-1,-1,-1,31,-1,33,35,37,39,41,-1,43,45,47,49,51,53,55,57,59,-1,61,63,65,67,69,-1,71,73,75,77,79,81,-1,83,85,87,89,-1,-1,-1,-1,-1,-1,-1,-1,-1,-1,-1,-1,-1,-1,-1,-1,-1,-1,-1,-1,-1,-1,-1,-1,-1,-1,-1,-1,-1,-1,-1,-1,-1,-1,-1,-1,-1,-1],"loss_changes":[1.0449305E1,6.952302E0,9.215054E0,5.025819E0,3.914341E0,7.3119173E0,8.712212E0,1.7720788E0,5.3813224E0,4.5303345E0,6.2380037E0,6.591258E0,5.092184E0,1.0666042E1,5.295727E0,0E0,0E0,0E0,4.6057277E0,0E0,3.3548756E0,8.044675E0,7.750828E0,6.815948E0,3.6605983E0,0E0,3.2496395E0,8.835974E0,6.152752E0,4.3309298E0,6.5344725E0,1.9456139E0,2.9192338E0,2.542502E0,3.9231415E0,0E0,1.0217438E0,3.7521677E0,2.2470913E0,2.7207193E0,1.3817787E0,0E0,2.272647E0,2.3503804E0,2.7945213E0,1.1587332E1,1.6150803E1,7.292562E0,0E0,7.006158E0,8.593391E0,4.402915E0,9.842157E0,0E0,0E0,0E0,0E0,0E0,0E0,0E0,0E0,0E0,0E0,0E0,0E0,0E0,0E0,0E0,0E0,0E0,0E0,0E0,0E0,0E0,0E0,0E0,0E0,0E0,0E0,0E0,0E0,0E0,0E0,0E0,0E0,0E0,0E0,0E0,0E0,0E0,0E0],"parents":[2147483647,0,0,1,1,2,2,3,3,4,4,5,5,6,6,7,7,8,8,9,9,10,10,11,11,12,12,13,13,14,14,18,18,20,20,21,21,22,22,23,23,24,24,26,26,27,27,28,28,29,29,30,30,31,31,32,32,33,33,34,34,36,36,37,37,38,38,39,39,40,40,42,42,43,43,44,44,45,45,46,46,47,47,49,49,50,50,51,51,52,52],"right_children":[2,4,6,8,10,12,14,16,18,20,22,24,26,28,30,-1,-1,-1,32,-1,34,36,38,40,42,-1,44,46,48,50,52,54,56,58,60,-1,62,64,66,68,70,-1,72,74,76,78,80,82,-1,84,86,88,90,-1,-1,-1,-1,-1,-1,-1,-1,-1,-1,-1,-1,-1,-1,-1,-1,-1,-1,-1,-1,-1,-1,-1,-1,-1,-1,-1,-1,-1,-1,-1,-1,-1,-1,-1,-1,-1,-1],"split_conditions":[-1.387434E0,-1.5762042E0,-9.3441033E-1,-2.3245227E0,-4.6565577E-1,-6.027487E-1,8.659683E-1,-5.689183E-1,-1.0803161E0,-7.294069E-1,-4.1787678E-1,-6.737968E-1,-9.711272E-1,1.2001032E0,-9.1870695E-2,-5.465466E-4,5.6929786E-2,4.8668932E-2,3.8372052E0,-2.8098134E-2,-1.2261592E0,-1.0190775E0,-1.0796509E0,1.4003744E0,-1.0459198E0,3.0417848E-2,-1.3228781E0,-6.897332E-2,5.32684E-2,1.5520579E-1,2.4676313E0,-5.982187E-1,1.8617529E0,-6.7046034E-1,-1.0635841E0,5.6215823E-2,-1.1239548E0,-8.0553174E-1,-1.3159199E0,-3.9949974E-1,-4.5328474E-1,6.893524E-2,-3.1949908E-1,3.649714E-1,8.236619E-2,-1.4431316E0,6.968775E-1,-2.6674438E-1,-8.298471E-2,7.5013064E-2,-4.2567465E-1,-9.607676E-1,-9.519331E-1,-5.518943E-3,-4.0476162E-2,4.575676E-2,-2.7879125E-2,-3.382301E-2,2.692251E-2,-1.0513951E-2,6.2822975E-2,-1.6734924E-2,-7.264174E-2,3.1497277E-2,-4.9106326E-2,7.33533E-3,4.5116138E-2,1.1871033E-2,-5.103157E-2,4.8246543E-4,6.1548453E-2,3.393849E-2,-3.5562377E-2,-2.3948105E-2,3.449113E-2,-6.312154E-2,-2.2893647E-2,2.3218254E-2,-1.2135452E-2,9.977439E-3,-1.2831471E-2,3.271592E-2,-6.5911524E-2,2.8379392E-4,6.357914E-2,3.5407357E-2,-2.9372204E-2,-1.4374723E-2,1.9007448E-2,1.5761703E-2,-5.5149384E-2],"split_indices":[20,12,28,14,4,4,4,31,0,4,30,4,13,30,29,0,0,0,29,0,24,14,22,0,28,0,29,24,26,15,4,25,30,31,13,0,12,25,11,20,32,0,11,24,14,24,26,25,0,31,18,16,0,0,0,0,0,0,0,0,0,0,0,0,0,0,0,0,0,0,0,0,0,0,0,0,0,0,0,0,0,0,0,0,0,0,0,0,0,0,0],"split_type":[0,0,0,0,0,0,0,0,0,0,0,0,0,0,0,0,0,0,0,0,0,0,0,0,0,0,0,0,0,0,0,0,0,0,0,0,0,0,0,0,0,0,0,0,0,0,0,0,0,0,0,0,0,0,0,0,0,0,0,0,0,0,0,0,0,0,0,0,0,0,0,0,0,0,0,0,0,0,0,0,0,0,0,0,0,0,0,0,0,0,0],"sum_hessian":[9.0932666E2,9.2519806E1,8.168068E2,3.0923153E1,6.159665E1,5.1936512E1,7.6487036E2,4.9712915E0,2.5951862E1,2.8523619E1,3.3073032E1,1.8357784E1,3.3578728E1,6.5096686E2,1.1390349E2,1.9950552E0,2.9762366E0,2.2086422E0,2.374322E1,1.7408385E0,2.6782782E1,6.2048473E0,2.6868185E1,1.2152886E1,6.2048984E0,1.9880881E0,3.1590641E1,6.397467E2,1.1220151E1,3.8169647E1,7.573385E1,1.954266E1,4.20056E0,8.90258E0,1.7880201E1,1.2483003E0,4.956547E0,5.2202926E0,2.1647892E1,9.159292E0,2.993595E0,3.4791422E0,2.7257564E0,8.397891E0,2.3192749E1,2.8048132E2,3.5926538E2,5.7344294E0,5.4857216E0,1.8957418E1,1.9212227E1,5.7793293E1,1.7940554E1,5.959561E0,1.3583098E1,2.9714866E0,1.2290738E0,1.2478671E0,7.6547127E0,1.7466117E0,1.6133589E1,1.9793719E0,2.977175E0,1.2453113E0,3.9749813E0,5.7003465E0,1.5947545E1,1.7454522E0,7.4138393E0,1.4988399E0,1.494755E0,1.2370608E0,1.4886955E0,7.149828E0,1.2480627E0,1.5030173E1,8.162577E0,2.4552319E1,2.55929E2,2.4733968E2,1.11925705E2,3.4927754E0,2.241654E0,6.48581E0,1.2471609E1,1.1474204E1,7.7380233E0,1.1707941E1,4.608535E1,8.720265E0,9.220288E0],"tree_param":{"num_deleted":"0","num_feature":"35","num_nodes":"91","size_leaf_vector":"1"}},{"base_weights":[-2.843554E-3,3.444838E-1,-4.066662E-2,5.439733E-1,4.4512168E-2,3.5323914E-2,-2.1024323E-1,7.2634906E-1,6.981584E-2,-5.0533766E-1,4.123235E-1,6.706572E-3,5.8909285E-1,-2.4553455E-1,8.5641897E-1,-2.7311012E-2,8.006641E-1,-4.504275E-1,5.661189E-1,-1.0015155E0,8.91963E-2,4.1473627E-2,1.140234E0,-3.798652E-1,3.446838E-2,7.031422E-1,-3.0372074E-2,-1.156433E0,-2.2153097E-1,-1.1711771E-2,1.0776045E0,9.585691E-2,9.882201E-1,3.2857608E-2,-9.51546E-1,9.9292606E-1,-1.1766958E-1,-2.8243515E-1,-6.7235105E-2,6.921179E-1,-4.1791666E-1,3.8126218E-1,-6.9363856E-1,6.7136444E-2,1.844465E-2,8.5761994E-1,-4.9561334E-1,6.815397E-2,-3.086795E-1,5.1971537E-1,7.634064E-2,-4.802591E-3,-7.01166E-2,-1.2785727E-1,-4.2486125E-1,3.7714016E-1,7.114428E-2,3.53599E-2,-3.7471257E-2,5.6248184E-2,-2.96029E-2,2.6886905E-2,-7.134681E-2,-1.1267289E-2,7.022994E-2,-3.180755E-2,3.1220058E-2,-5.5328943E-2,2.4817111E-2,5.863881E-2,-1.01163015E-2,-4.736941E-2,3.2699008E-2,2.7366027E-3,6.545573E-2,1.0589851E-2,-5.0383933E-2,5.661993E-2,1.0055843E-2,4.982434E-2,-3.0333592E-2,-2.2769724E-3,1.08029395E-2,-2.9029993E-2,1.7618572E-2,-2.2560495E-3,4.1900817E-2,-1.065009E-2,2.4482518E-2,-3.281563E-2,-3.4627796E-3,4.028602E-2,-1.3498895E-2],"categories":[],"categories_nodes":[],"categories_segments":[],"categories_sizes":[],"default_left":[0,0,0,0,0,0,0,0,0,0,0,0,0,0,0,0,0,0,0,0,0,0,0,0,0,0,0,0,0,0,0,0,0,0,0,0,0,0,0,0,0,0,0,0,0,0,0,0,0,0,0,0,0,0,0,0,0,0,0,0,0,0,0,0,0,0,0,0,0,0,0,0,0,0,0,0,0,0,0,0,0,0,0,0,0,0,0,0,0,0,0,0,0],"id":11,"left_children":[1,3,5,7,9,11,13,15,17,19,21,23,25,27,29,-1,31,33,35,37,39,41,43,45,47,49,-1,51,53,-1,55,57,59,-1,61,63,65,67,-1,69,71,73,75,-1,-1,77,79,81,83,85,-1,-1,-1,87,89,91,-1,-1,-1,-1,-1,-1,-1,-1,-1,-1,-1,-1,-1,-1,-1,-1,-1,-1,-1,-1,-1,-1,-1,-1,-1,-1,-1,-1,-1,-1,-1,-1,-1,-1,-1,-1,-1],"loss_changes":[1.2052891E1,5.3674946E0,1.0668337E1,4.621026E0,7.7066545E0,9.063241E0,9.85294E0,4.1171665E0,4.415479E0,4.605669E0,6.098322E0,5.8625684E0,4.262186E0,5.182209E0,2.2851858E0,0E0,4.81872E0,5.300828E0,2.6528594E0,1.6998215E0,2.6994336E0,4.290936E0,6.989546E-1,5.668035E0,5.9098372E0,3.1529484E0,0E0,1.468668E0,4.5850525E0,0E0,1.2009354E0,5.139263E0,6.9866943E0,0E0,5.1627555E0,3.0529122E0,2.0260522E0,3.1090934E0,0E0,1.9474002E0,3.403432E0,3.4638882E0,1.7632029E0,0E0,0E0,4.0311193E-1,6.2563524E0,7.8246226E0,8.423115E0,4.1512837E0,0E0,0E0,0E0,8.947064E0,6.242119E0,1.2527661E0,0E0,0E0,0E0,0E0,0E0,0E0,0E0,0E0,0E0,0E0,0E0,0E0,0E0,0E0,0E0,0E0,0E0,0E0,0E0,0E0,0E0,0E0,0E0,0E0,0E0,0E0,0E0,0E0,0E0,0E0,0E0,0E0,0E0,0E0,0E0,0E0,0E0],"parents":[2147483647,0,0,1,1,2,2,3,3,4,4,5,5,6,6,7,7,8,8,9,9,10,10,11,11,12,12,13,13,14,14,16,16,17,17,18,18,19,19,20,20,21,21,22,22,23,23,24,24,25,25,27,27,28,28,30,30,31,31,32,32,34,34,35,35,36,36,37,37,39,39,40,40,41,41,42,42,45,45,46,46,47,47,48,48,49,49,53,53,54,54,55,55],"right_children":[2,4,6,8,10,12,14,16,18,20,22,24,26,28,30,-1,32,34,36,38,40,42,44,46,48,50,-1,52,54,-1,56,58,60,-1,62,64,66,68,-1,70,72,74,76,-1,-1,78,80,82,84,86,-1,-1,-1,88,90,92,-1,-1,-1,-1,-1,-1,-1,-1,-1,-1,-1,-1,-1,-1,-1,-1,-1,-1,-1,-1,-1,-1,-1,-1,-1,-1,-1,-1,-1,-1,-1,-1,-1,-1,-1,-1,-1],"split_conditions":[-1.387434E0,3.6148608E-2,6.831987E-1,-3.381711E-1,8.1821585E-1,6.3528776E-1,4.079014E0,-7.294069E-1,-1.1568885E-1,-9.948241E-2,-8.00247E-1,-1.1452831E0,-2.9390576E-1,-1.2216239E0,-5.6610495E-1,-2.7311012E-2,-1.4185069E0,-1.7063394E0,-2.969746E-1,-4.4485942E-1,-1.2591447E0,-1.4641382E0,3.0814716E-1,-2.1773928E-1,1.2586972E0,-3.817288E-1,-3.0372074E-2,-3.6965445E-1,1.0147833E0,-1.1711771E-2,2.1813642E-3,4.9800007E-3,1.2476718E0,3.2857608E-2,-2.3309126E-1,-1.2547988E0,1.2761081E-2,-1.1217747E0,-6.7235105E-2,-5.3381056E-1,8.581245E-1,-1.7031854E0,1.8917091E-2,6.7136444E-2,1.844465E-2,-2.742746E-1,-1.057023E0,3.9512865E-2,4.8826957E-1,-7.912287E-1,7.634064E-2,-4.802591E-3,-7.01166E-2,4.7324258E-1,2.3059207E-1,6.330672E-1,7.114428E-2,3.53599E-2,-3.7471257E-2,5.6248184E-2,-2.96029E-2,2.6886905E-2,-7.134681E-2,-1.1267289E-2,7.022994E-2,-3.180755E-2,3.1220058E-2,-5.5328943E-2,2.4817111E-2,5.863881E-2,-1.01163015E-2,-4.736941E-2,3.2699008E-2,2.7366027E-3,6.545573E-2,1.0589851E-2,-5.0383933E-2,5.661993E-2,1.0055843E-2,4.982434E-2,-3.0333592E-2,-2.2769724E-3,1.08029395E-2,-2.9029993E-2,1.7618572E-2,-2.2560495E-3,4.1900817E-2,-1.065009E-2,2.4482518E-2,-3.281563E-2,-3.4627796E-3,4.028602E-2,-1.3498895E-2],"split_indices":[20,22,3,33,22,7,23,4,15,23,15,22,4,28,15,0,12,20,31,4,33,15,31,15,26,4,0,31,23,0,29,23,31,0,14,12,15,15,0,4,31,33,19,0,0,1,26,24,15,29,0,0,0,26,28,14,0,0,0,0,0,0,0,0,0,0,0,0,0,0,0,0,0,0,0,0,0,0,0,0,0,0,0,0,0,0,0,0,0,0,0,0,0],"split_type":[0,0,0,0,0,0,0,0,0,0,0,0,0,0,0,0,0,0,0,0,0,0,0,0,0,0,0,0,0,0,0,0,0,0,0,0,0,0,0,0,0,0,0,0,0,0,0,0,0,0,0,0,0,0,0,0,0,0,0,0,0,0,0,0,0,0,0,0,0,0,0,0,0,0,0,0,0,0,0,0,0,0,0,0,0,0,0,0,0,0,0,0,0],"sum_hessian":[9.154113E2,8.9100266E1,8.263111E2,5.3024242E1,3.6076023E1,5.7115656E2,2.5515453E2,3.7910725E1,1.5113517E1,1.4309905E1,2.1766117E1,5.440534E2,2.7103155E1,2.4772806E2,7.4264584E0,1.7413771E0,3.616935E1,7.423921E0,7.6895957E0,7.4270244E0,6.8828807E0,1.5119921E1,6.6461973E0,3.5603683E1,5.084497E2,2.5121058E1,1.9820982E0,5.1491284E0,2.4257893E2,1.2422059E0,6.1842527E0,7.9196343E0,2.8249714E1,2.2155995E0,5.2083216E0,4.4560947E0,3.233501E0,2.988399E0,4.4386253E0,2.9777389E0,3.9051418E0,1.0669532E1,4.4503884E0,4.6774793E0,1.968718E0,2.497122E0,3.3106564E1,4.6372855E2,4.4721172E1,2.187957E1,3.241486E0,1.2310653E0,3.9180632E0,1.6718575E2,7.5393196E1,2.732718E0,3.4515347E0,4.6905813E0,3.2290533E0,2.6265085E1,1.984629E0,1.2285177E0,3.9798038E0,1.2397844E0,3.2163103E0,1.9875469E0,1.2459542E0,1.2474077E0,1.7409912E0,1.7344806E0,1.2432582E0,2.691709E0,1.2134328E0,8.675452E0,1.9940802E0,1.2299081E0,3.2204804E0,1.2493242E0,1.2477978E0,1.7411479E0,3.1365416E1,2.6257843E2,2.0115012E2,3.1773136E1,1.2948037E1,8.19518E0,1.3684391E1,1.4750253E2,1.96832E1,4.515667E1,3.0236528E1,1.496506E0,1.2362121E0],"tree_param":{"num_deleted":"0","num_feature":"35","num_nodes":"93","size_leaf_vector":"1"}},{"base_weights":[2.7009072E-3,-1.940535E-1,6.6451654E-2,-3.228719E-1,-7.1658413E-3,1.718677E-1,-5.0421763E-2,-5.5435207E-2,-4.8090005E-1,9.847476E-2,-5.7756597E-1,2.4035959E-1,-1.0948993E-1,2.528689E-1,-1.1145105E-1,2.2155201E-1,-7.1029085E-1,-7.9576486E-1,-1.5379706E-1,1.904002E-1,-4.1109037E-1,-7.109447E-2,4.789201E-4,-9.520884E-1,2.567257E-1,4.0277192E-1,-3.020948E-1,-9.411969E-1,3.4411794E-1,1.0523136E0,-1.3338573E-1,-8.682995E-1,3.8090312E-1,-8.4877E-3,-1.185906E0,-8.789317E-1,3.8836926E-1,-7.5796866E-1,1.213926E-1,3.186596E-1,-3.0796564E-1,-6.3825816E-1,3.751201E-2,-7.3606807E-1,6.4163023E-1,-9.8737115E-3,-5.998251E-2,9.453388E-2,3.8329068E-1,-3.5476524E-2,9.0321624E-1,8.734995E-1,-4.2185715E-1,-6.1462104E-2,-6.879472E-3,7.520158E-2,6.3686466E-1,7.4883625E-2,-1.0388666E-2,-2.629333E-1,8.916595E-3,-5.3429086E-2,-7.4804025E-3,1.0777515E-2,6.0225558E-2,3.703833E-2,-3.5756227E-2,-6.728705E-2,-4.3934556E-3,-4.7089603E-2,2.2120748E-2,-8.717927E-3,3.897243E-2,1.1393673E-2,-4.879653E-2,5.935297E-2,-3.511397E-4,1.9786773E-2,-4.178157E-2,-3.3419024E-2,2.5527304E-2,-6.242618E-2,-9.328264E-3,3.4903362E-2,-7.007243E-2,-5.5827335E-3,5.7911176E-2,2.0932674E-2,-7.3276074E-3,9.030629E-3,2.7632106E-2,-1.728642E-2,4.9199723E-2,8.09307E-2,4.334229E-3,-1.9918231E-2,7.442964E-2,-3.3790518E-2,1.7090909E-3,6.183923E-2,-5.4738224E-3,4.4162463E-2,-6.54057E-3,-1.0063625E-2,-4.1979816E-2,4.750884E-2,-2.4822538E-3],"categories":[],"categories_nodes":[],"categories_segments":[],"categories_sizes":[],"default_left":[0,0,0,0,0,0,0,0,0,0,0,0,0,0,0,0,0,0,0,0,0,0,0,0,0,0,0,0,0,0,0,0,0,0,0,0,0,0,0,0,0,0,0,0,0,0,0,0,0,0,0,0,0,0,0,0,0,0,0,0,0,0,0,0,0,0,0,0,0,0,0,0,0,0,0,0,0,0,0,0,0,0,0,0,0,0,0,0,0,0,0,0,0,0,0,0,0,0,0,0,0,0,0,0,0,0,0],"id":12,"left_children":[1,3,5,7,9,11,13,15,17,19,21,23,25,27,29,31,33,35,37,39,41,-1,43,45,47,49,51,53,55,57,59,61,63,65,67,69,71,73,75,77,79,81,-1,83,85,-1,-1,87,89,91,93,95,97,-1,-1,99,101,-1,-1,103,105,-1,-1,-1,-1,-1,-1,-1,-1,-1,-1,-1,-1,-1,-1,-1,-1,-1,-1,-1,-1,-1,-1,-1,-1,-1,-1,-1,-1,-1,-1,-1,-1,-1,-1,-1,-1,-1,-1,-1,-1,-1,-1,-1,-1,-1,-1],"loss_changes":[1.155696E1,5.4260387E0,8.581903E0,5.613467E0,5.662396E0,7.0811424E0,6.1506133E0,9.353418E0,8.50391E0,3.7949011E0,7.166471E0,5.996334E0,7.260862E0,6.3944554E0,7.18717E0,6.650706E0,5.0994835E0,4.520548E0,7.1280785E0,4.4383955E0,3.7614243E0,0E0,5.060135E0,5.482302E-1,5.9482193E0,4.462405E0,7.852703E0,8.0842257E-1,4.0845046E0,3.2402215E0,5.013618E0,5.5221105E-1,4.1587625E0,4.3368816E0,1.4818306E0,3.735611E0,9.0141326E-1,3.0977602E0,4.105248E0,5.1789565E0,4.5912886E0,2.7847085E0,0E0,5.737069E0,2.3583992E0,0E0,0E0,1.0149907E1,5.5094395E0,4.0508475E0,5.3908668E0,4.6926413E0,5.688368E0,0E0,0E0,6.2477803E0,4.84385E0,0E0,0E0,4.891835E0,7.2410088E0,0E0,0E0,0E0,0E0,0E0,0E0,0E0,0E0,0E0,0E0,0E0,0E0,0E0,0E0,0E0,0E0,0E0,0E0,0E0,0E0,0E0,0E0,0E0,0E0,0E0,0E0,0E0,0E0,0E0,0E0,0E0,0E0,0E0,0E0,0E0,0E0,0E0,0E0,0E0,0E0,0E0,0E0,0E0,0E0,0E0,0E0],"parents":[2147483647,0,0,1,1,2,2,3,3,4,4,5,5,6,6,7,7,8,8,9,9,10,10,11,11,12,12,13,13,14,14,15,15,16,16,17,17,18,18,19,19,20,20,22,22,23,23,24,24,25,25,26,26,27,27,28,28,29,29,30,30,31,31,32,32,33,33,34,34,35,35,36,36,37,37,38,38,39,39,40,40,41,41,43,43,44,44,47,47,48,48,49,49,50,50,51,51,52,52,55,55,56,56,59,59,60,60],"right_children":[2,4,6,8,10,12,14,16,18,20,22,24,26,28,30,32,34,36,38,40,42,-1,44,46,48,50,52,54,56,58,60,62,64,66,68,70,72,74,76,78,80,82,-1,84,86,-1,-1,88,90,92,94,96,98,-1,-1,100,102,-1,-1,104,106,-1,-1,-1,-1,-1,-1,-1,-1,-1,-1,-1,-1,-1,-1,-1,-1,-1,-1,-1,-1,-1,-1,-1,-1,-1,-1,-1,-1,-1,-1,-1,-1,-1,-1,-1,-1,-1,-1,-1,-1,-1,-1,-1,-1,-1,-1],"split_conditions":[-5.8992517E-1,1.5106615E-2,-2.8631186E-1,-6.2045205E-1,-6.270155E-1,7.777455E-1,-7.0896536E-1,1.7370577E-1,-1.3791704E-2,7.834609E-1,-5.848734E-1,-1.9992126E0,-3.262894E-1,-9.062112E-1,-5.781633E-1,-7.2313976E-1,-3.8750896E-1,1.3072988E0,-4.927123E-1,4.3359008E-1,1.9963949E0,-7.109447E-2,-3.2556775E-1,-9.941977E-1,-9.436748E-1,7.8156507E-1,-2.958859E-1,6.765427E-1,-5.695986E-1,1.2831854E0,2.8354642E-1,-7.76812E-1,-6.777872E-1,-5.5861247E-1,-7.94406E-1,-4.5797855E-4,-7.002866E-1,4.7411524E-2,1.3021759E-2,3.85451E-1,1.124282E0,1.1315775E-1,3.751201E-2,-8.6527866E-1,-3.743235E-1,-9.8737115E-3,-5.998251E-2,-1.1615068E-1,-1.9301406E-1,8.2806605E-1,1.4975178E0,-4.9634105E-1,1.1907698E0,-6.1462104E-2,-6.879472E-3,-7.58858E-1,3.5781384E-1,7.4883625E-2,-1.0388666E-2,6.299981E-1,-1.2460423E0,-5.3429086E-2,-7.4804025E-3,1.0777515E-2,6.0225558E-2,3.703833E-2,-3.5756227E-2,-6.728705E-2,-4.3934556E-3,-4.7089603E-2,2.2120748E-2,-8.717927E-3,3.897243E-2,1.1393673E-2,-4.879653E-2,5.935297E-2,-3.511397E-4,1.9786773E-2,-4.178157E-2,-3.3419024E-2,2.5527304E-2,-6.242618E-2,-9.328264E-3,3.4903362E-2,-7.007243E-2,-5.5827335E-3,5.7911176E-2,2.0932674E-2,-7.3276074E-3,9.030629E-3,2.7632106E-2,-1.728642E-2,4.9199723E-2,8.09307E-2,4.334229E-3,-1.9918231E-2,7.442964E-2,-3.3790518E-2,1.7090909E-3,6.183923E-2,-5.4738224E-3,4.4162463E-2,-6.54057E-3,-1.0063625E-2,-4.1979816E-2,4.750884E-2,-2.4822538E-3],"split_indices":[28,26,8,12,28,26,26,31,14,12,19,33,19,31,28,4,33,21,31,32,14,0,18,2,10,25,28,12,30,21,23,28,28,19,12,26,25,13,14,33,0,15,0,8,25,0,0,33,19,12,26,28,12,0,0,30,12,0,0,30,20,0,0,0,0,0,0,0,0,0,0,0,0,0,0,0,0,0,0,0,0,0,0,0,0,0,0,0,0,0,0,0,0,0,0,0,0,0,0,0,0,0,0,0,0,0,0],"split_type":[0,0,0,0,0,0,0,0,0,0,0,0,0,0,0,0,0,0,0,0,0,0,0,0,0,0,0,0,0,0,0,0,0,0,0,0,0,0,0,0,0,0,0,0,0,0,0,0,0,0,0,0,0,0,0,0,0,0,0,0,0,0,0,0,0,0,0,0,0,0,0,0,0,0,0,0,0,0,0,0,0,0,0,0,0,0,0,0,0,0,0,0,0,0,0,0,0,0,0,0,0,0,0,0,0,0,0],"sum_hessian":[9.1934155E2,2.244808E2,6.948608E2,1.3245457E2,9.202623E1,3.6509042E2,3.2977032E2,4.9698624E1,8.275595E1,7.834395E1,1.3682284E1,2.9373193E2,7.135849E1,5.471512E1,2.750552E2,3.539087E1,1.4307756E1,4.1436745E1,4.1319206E1,6.690131E1,1.1442635E1,4.9671593E0,8.715125E0,3.202746E0,2.9052917E2,1.9200544E1,5.2157948E1,3.2231436E0,5.1491974E1,4.21934E0,2.7083588E2,3.9470186E0,3.144385E1,6.1907387E0,8.117018E0,3.895828E1,2.4784641E0,1.2381532E1,2.8937674E1,5.349455E1,1.3406763E1,9.94726E0,1.4953748E0,3.9869373E0,4.7281876E0,1.2352257E0,1.9675201E0,1.2810753E2,1.6242166E2,1.0731702E1,8.4688425E0,4.240393E0,4.7917553E1,1.9827806E0,1.2403631E0,2.7493448E1,2.3998528E1,2.9781947E0,1.2411451E0,1.4132777E2,1.295081E2,2.7060602E0,1.2409585E0,2.7237242E1,4.206608E0,2.981318E0,3.2094207E0,6.888683E0,1.2283345E0,3.7463287E1,1.4949914E0,1.2434345E0,1.2350295E0,2.2335792E0,1.0147952E1,2.2254739E0,2.67122E1,5.0762154E1,2.7323952E0,9.435469E0,3.9712949E0,3.4806223E0,6.466637E0,1.2479751E0,2.7389622E0,2.242332E0,2.4858553E0,5.432955E1,7.377798E1,7.4876595E1,8.754507E1,8.734452E0,1.9972496E0,3.9903893E0,4.4784527E0,1.4971011E0,2.743292E0,3.0468645E1,1.7448908E1,2.9900062E0,2.450344E1,1.8053675E1,5.944852E0,1.288945E2,1.2433273E1,6.693788E0,1.22814316E2],"tree_param":{"num_deleted":"0","num_feature":"35","num_nodes":"107","size_leaf_vector":"1"}},{"base_weights":[2.4353373E-3,2.5753608E-1,-2.6101E-2,-3.2078552E-1,3.5244069E-1,-9.058767E-1,-1.7430043E-2,5.1157933E-2,-6.748777E-1,1.8167323E-1,8.4987783E-1,-1.04566E0,-3.4590152E-3,-2.6194839E-2,7.427979E-1,1.1374718E-2,-1.0434581E0,-8.556204E-1,2.638096E-1,-1.8086936E-2,1.0015509E0,-1.3629529E-2,-6.757998E-2,-5.148248E-3,-4.686061E-1,-1.8106459E-2,9.980991E-1,-3.813271E-2,5.632221E-1,-7.109141E-2,-3.5062286E-1,-6.447818E-2,1.0011012E-2,9.948972E-1,1.4759944E-1,1.1061566E0,-1.1737104E-2,2.8374554E-3,-1.1365085E0,5.0375592E-2,-5.7031554E-1,7.84868E-3,1.2093781E0,5.286969E-2,-9.279328E-3,1.261309E-2,-4.6845485E-2,-4.7221165E-3,6.3420065E-2,-3.4034397E-2,1.6130371E-2,8.724101E-3,6.5404445E-2,2.0977102E-2,-5.1300967E-4,-6.974062E-2,-7.125412E-3,-3.5489995E-2,9.693289E-3,7.195058E-2,1.4395258E-2],"categories":[],"categories_nodes":[],"categories_segments":[],"categories_sizes":[],"default_left":[0,0,0,0,0,0,0,0,0,0,0,0,0,0,0,0,0,0,0,0,0,0,0,0,0,0,0,0,0,0,0,0,0,0,0,0,0,0,0,0,0,0,0,0,0,0,0,0,0,0,0,0,0,0,0,0,0,0,0,0,0],"id":13,"left_children":[1,3,5,7,9,11,13,-1,15,17,19,21,-1,23,25,27,29,31,33,-1,35,-1,-1,37,39,-1,41,-1,43,-1,45,-1,-1,47,49,51,-1,53,55,-1,57,-1,59,-1,-1,-1,-1,-1,-1,-1,-1,-1,-1,-1,-1,-1,-1,-1,-1,-1,-1],"loss_changes":[6.699256E0,5.1947045E0,6.298798E0,7.1507792E0,6.642229E0,8.7022114E-1,5.4880075E0,0E0,2.8819914E0,5.4088526E0,4.070016E0,1.2480297E0,0E0,7.561261E0,3.0097637E0,2.5456767E0,1.4395266E0,2.4113204E0,4.707405E0,0E0,2.6128979E0,0E0,0E0,7.0181136E0,6.1112585E0,0E0,1.2127347E0,0E0,1.4792997E0,0E0,1.628515E0,0E0,0E0,2.4026585E0,7.5360994E0,2.9610405E0,0E0,4.217728E0,1.1991429E0,0E0,3.8831406E0,0E0,8.889046E-1,0E0,0E0,0E0,0E0,0E0,0E0,0E0,0E0,0E0,0E0,0E0,0E0,0E0,0E0,0E0,0E0,0E0,0E0],"parents":[2147483647,0,0,1,1,2,2,3,3,4,4,5,5,6,6,8,8,9,9,10,10,11,11,13,13,14,14,15,15,16,16,17,17,18,18,20,20,23,23,24,24,26,26,28,28,30,30,33,33,34,34,35,35,37,37,38,38,40,40,42,42],"right_children":[2,4,6,8,10,12,14,-1,16,18,20,22,-1,24,26,28,30,32,34,-1,36,-1,-1,38,40,-1,42,-1,44,-1,46,-1,-1,48,50,52,-1,54,56,-1,58,-1,60,-1,-1,-1,-1,-1,-1,-1,-1,-1,-1,-1,-1,-1,-1,-1,-1,-1,-1],"split_conditions":[-1.387434E0,-2.0260096E0,-1.2216239E0,-1.16546E0,-6.716677E-2,1.0469761E0,4.009372E0,5.1157933E-2,-4.968137E-1,-7.21573E-1,-6.970559E-1,7.153348E-1,-3.4590152E-3,1.8476441E0,3.4456405E-1,-5.5300844E-1,2.557028E0,-1.5195544E0,-2.0912914E0,-1.8086936E-2,2.0160606E0,-1.3629529E-2,-6.757998E-2,3.521881E0,-2.4291751E0,-1.8106459E-2,-5.974321E-1,-3.813271E-2,7.2024167E-1,-7.109141E-2,-1.057023E0,-6.447818E-2,1.0011012E-2,-1.093471E0,-1.8899776E0,-9.657377E-1,-1.1737104E-2,-1.3708075E0,3.6248416E-1,5.0375592E-2,5.234199E-1,7.84868E-3,1.8650222E0,5.286969E-2,-9.279328E-3,1.261309E-2,-4.6845485E-2,-4.7221165E-3,6.3420065E-2,-3.4034397E-2,1.6130371E-2,8.724101E-3,6.5404445E-2,2.0977102E-2,-5.1300967E-4,-6.974062E-2,-7.125412E-3,-3.5489995E-2,9.693289E-3,7.195058E-2,1.4395258E-2],"split_indices":[20,32,28,14,14,0,23,0,4,4,28,2,0,0,13,31,29,21,12,0,0,0,0,23,15,0,4,0,14,0,26,0,0,18,11,0,0,24,22,0,29,0,12,0,0,0,0,0,0,0,0,0,0,0,0,0,0,0,0,0,0],"split_type":[0,0,0,0,0,0,0,0,0,0,0,0,0,0,0,0,0,0,0,0,0,0,0,0,0,0,0,0,0,0,0,0,0,0,0,0,0,0,0,0,0,0,0,0,0,0,0,0,0,0,0,0,0,0,0,0,0,0,0,0,0],"sum_hessian":[9.1834955E2,9.158652E1,8.26763E2,1.2575418E1,7.90111E1,7.0590854E0,8.197039E2,2.228333E0,1.0347085E1,5.9835217E1,1.9175882E1,5.8345785E0,1.2245071E0,8.113157E2,8.388251E0,3.9541233E0,6.392962E0,3.6993504E0,5.6135868E1,1.9793301E0,1.7196552E1,2.1904898E0,3.6440887E0,7.754378E2,3.5877846E1,1.4958535E0,6.892398E0,1.4867644E0,2.4673586E0,3.454311E0,2.9386508E0,2.4649224E0,1.2344279E0,6.6622043E0,4.9473663E1,1.5952075E1,1.244478E0,7.709933E2,4.444562E0,1.7386649E0,3.4139183E1,1.7336223E0,5.158776E0,1.2381487E0,1.22921E0,1.7297062E0,1.2089447E0,1.4684017E0,5.1938024E0,8.125827E0,4.1347836E1,3.1736348E0,1.277844E1,2.2549334E1,7.484439E2,3.2077537E0,1.2368084E0,2.8929842E1,5.2093396E0,3.680054E0,1.4787216E0],"tree_param":{"num_deleted":"0","num_feature":"35","num_nodes":"61","size_leaf_vector":"1"}},{"base_weights":[8.09793E-4,6.403009E-2,-1.5690094E-1,1.16346724E-1,-1.7099275E-1,-1.9877079E-1,4.676037E-1,2.7711263E-1,-1.1861461E-2,-2.1616073E-1,6.9654715E-1,-1.5567309E-1,-7.6588124E-1,8.225729E-1,-2.756672E-1,4.3376967E-1,1.4542094E-1,-6.7098215E-2,4.7317126E-1,1.5418497E-1,-3.493783E-1,-7.361176E-3,1.0585674E0,3.016213E-1,-2.056623E-1,-9.118556E-1,2.3175709E-2,1.0529227E0,-5.308951E-3,3.4475192E-2,-6.5765625E-1,6.1233664E-1,7.164631E-2,-2.1173064E-1,3.1532428E-1,-1.4058262E-1,3.0199218E-1,7.1650475E-1,-1.7749143E-1,-5.51743E-1,5.377877E-1,-8.9014614E-1,-2.2225063E-1,1.0383497E-2,6.5927446E-2,4.2842373E-1,-3.1374294E-2,-2.3385227E-1,7.6235384E-1,-9.9113815E-2,-1.0912794E0,1.2802276E-1,7.5506024E-2,-6.1034936E-2,6.3543976E-3,1.0381155E-2,4.346482E-2,-1.3663537E-2,3.0882914E-2,-2.265673E-2,4.1499026E-2,2.5388017E-2,-5.050508E-3,-4.293098E-3,-4.4757094E-2,-1.5688881E-2,2.5084129E-2,-3.0095223E-2,4.362438E-2,-4.7432184E-2,2.6180351E-2,-4.815566E-2,3.9448347E-2,6.774597E-2,1.1261221E-3,-2.6482823E-3,-5.5979487E-2,1.2991394E-2,-1.9944107E-2,3.0876672E-2,-2.0632192E-2,-8.747111E-3,-3.842924E-2,6.224378E-2,-1.5508413E-2,-4.94112E-2,3.3074345E-2,-2.3196846E-2,-7.138382E-2,-3.1226734E-2,5.342403E-2],"categories":[],"categories_nodes":[],"categories_segments":[],"categories_sizes":[],"default_left":[0,0,0,0,0,0,0,0,0,0,0,0,0,0,0,0,0,0,0,0,0,0,0,0,0,0,0,0,0,0,0,0,0,0,0,0,0,0,0,0,0,0,0,0,0,0,0,0,0,0,0,0,0,0,0,0,0,0,0,0,0,0,0,0,0,0,0,0,0,0,0,0,0,0,0,0,0,0,0,0,0,0,0,0,0,0,0,0,0,0,0],"id":14,"left_children":[1,3,5,7,9,11,13,15,17,19,21,23,25,27,29,31,33,35,37,39,41,-1,43,45,47,49,-1,51,-1,-1,53,55,57,59,61,63,65,67,69,71,73,75,77,-1,-1,79,-1,81,83,85,87,89,-1,-1,-1,-1,-1,-1,-1,-1,-1,-1,-1,-1,-1,-1,-1,-1,-1,-1,-1,-1,-1,-1,-1,-1,-1,-1,-1,-1,-1,-1,-1,-1,-1,-1,-1,-1,-1,-1,-1],"loss_changes":[9.190156E0,8.109988E0,6.9896946E0,1.1108017E1,4.8607054E0,5.9394464E0,4.6779385E0,4.869093E0,8.087756E0,5.7284164E0,2.045252E0,5.357169E0,3.5188313E0,2.6082253E0,2.7400157E0,6.9838943E0,8.03968E0,7.387862E0,5.0142274E0,8.724314E0,5.638443E0,0E0,7.1068954E-1,3.0057986E0,5.8925686E0,2.1898403E0,0E0,3.7991486E0,0E0,0E0,2.344558E0,7.3754597E0,7.141795E0,1.1177791E1,7.216735E0,9.276958E0,5.725801E0,5.1859255E0,5.4723186E0,7.0753565E0,8.672653E0,2.9807053E0,6.070054E0,0E0,0E0,3.6006646E0,0E0,6.299446E0,3.574179E0,3.3247058E0,2.0407915E0,3.6510975E0,0E0,0E0,0E0,0E0,0E0,0E0,0E0,0E0,0E0,0E0,0E0,0E0,0E0,0E0,0E0,0E0,0E0,0E0,0E0,0E0,0E0,0E0,0E0,0E0,0E0,0E0,0E0,0E0,0E0,0E0,0E0,0E0,0E0,0E0,0E0,0E0,0E0,0E0,0E0],"parents":[2147483647,0,0,1,1,2,2,3,3,4,4,5,5,6,6,7,7,8,8,9,9,10,10,11,11,12,12,13,13,14,14,15,15,16,16,17,17,18,18,19,19,20,20,22,22,23,23,24,24,25,25,27,27,30,30,31,31,32,32,33,33,34,34,35,35,36,36,37,37,38,38,39,39,40,40,41,41,42,42,45,45,47,47,48,48,49,49,50,50,51,51],"right_children":[2,4,6,8,10,12,14,16,18,20,22,24,26,28,30,32,34,36,38,40,42,-1,44,46,48,50,-1,52,-1,-1,54,56,58,60,62,64,66,68,70,72,74,76,78,-1,-1,80,-1,82,84,86,88,90,-1,-1,-1,-1,-1,-1,-1,-1,-1,-1,-1,-1,-1,-1,-1,-1,-1,-1,-1,-1,-1,-1,-1,-1,-1,-1,-1,-1,-1,-1,-1,-1,-1,-1,-1,-1,-1,-1,-1],"split_conditions":[7.564952E-1,7.2977966E-1,1.0952933E0,-2.210081E-1,2.0325196E0,-3.1427348E-1,2.961461E-1,-1.2084354E-1,1.8617529E0,-3.8409862E-1,1.6147196E0,-1.3909993E0,5.0388575E-2,-4.5884553E-1,-6.4053935E-1,-2.5871074E-1,-2.2740902E-1,3.8878742E-1,-3.8742536E-1,1.9934335E-1,-1.9838046E-1,-7.361176E-3,1.0756527E0,5.1708E-1,4.009372E0,-5.4846424E-1,2.3175709E-2,7.462161E-2,-5.308951E-3,3.4475192E-2,-4.5198303E-1,-3.6791477E-1,6.1969733E-1,-3.2556775E-1,1.1491684E-1,1.8939292E-2,-7.012855E-1,-1.2122117E0,2.572104E0,-5.128782E-1,1.970826E-1,-6.177523E-1,3.719214E-1,1.0383497E-2,6.5927446E-2,-5.355226E-1,-3.1374294E-2,1.1738051E0,3.0448215E0,-2.7004352E-1,-1.0416949E0,-6.2935257E-1,7.5506024E-2,-6.1034936E-2,6.3543976E-3,1.0381155E-2,4.346482E-2,-1.3663537E-2,3.0882914E-2,-2.265673E-2,4.1499026E-2,2.5388017E-2,-5.050508E-3,-4.293098E-3,-4.4757094E-2,-1.5688881E-2,2.5084129E-2,-3.0095223E-2,4.362438E-2,-4.7432184E-2,2.6180351E-2,-4.815566E-2,3.9448347E-2,6.774597E-2,1.1261221E-3,-2.6482823E-3,-5.5979487E-2,1.2991394E-2,-1.9944107E-2,3.0876672E-2,-2.0632192E-2,-8.747111E-3,-3.842924E-2,6.224378E-2,-1.5508413E-2,-4.94112E-2,3.3074345E-2,-2.3196846E-2,-7.138382E-2,-3.1226734E-2,5.342403E-2],"split_indices":[18,26,29,21,19,30,26,29,30,29,22,21,19,4,4,7,19,6,8,11,33,0,26,25,23,19,0,23,0,0,4,13,18,18,26,5,30,7,4,29,15,33,11,0,0,33,0,15,25,30,20,4,0,0,0,0,0,0,0,0,0,0,0,0,0,0,0,0,0,0,0,0,0,0,0,0,0,0,0,0,0,0,0,0,0,0,0,0,0,0,0],"split_type":[0,0,0,0,0,0,0,0,0,0,0,0,0,0,0,0,0,0,0,0,0,0,0,0,0,0,0,0,0,0,0,0,0,0,0,0,0,0,0,0,0,0,0,0,0,0,0,0,0,0,0,0,0,0,0,0,0,0,0,0,0,0,0,0,0,0,0,0,0,0,0,0,0,0,0,0,0,0,0,0,0,0,0,0,0,0,0,0,0,0,0],"sum_hessian":[9.1972534E2,6.569663E2,2.6275903E2,5.3776373E2,1.1920252E2,2.4688817E2,1.5870874E1,2.3807259E2,2.9969116E2,1.1401712E2,5.1854024E0,2.3063547E2,1.62527E1,1.066894E1,5.201935E0,1.0768248E2,1.303901E2,2.6982452E2,2.986664E1,3.0121569E1,8.389555E1,1.7349753E0,3.4504273E0,2.2231457E1,2.08404E2,1.4758602E1,1.4940984E0,8.441561E0,2.227379E0,1.2467468E0,3.955188E0,7.165678E1,3.6025703E1,4.195367E1,8.843643E1,2.2553963E2,4.4284916E1,2.1663702E1,8.202939E0,1.0450899E1,1.967067E1,1.4826311E1,6.906924E1,1.2284852E0,2.221942E0,2.003589E1,2.1955664E0,2.0324368E2,5.1603184E0,2.94969E0,1.1808912E1,3.2158964E0,5.225664E0,1.9794352E0,1.9757528E0,2.8529926E1,4.3126854E1,2.2384731E1,1.3640971E1,3.4519257E1,7.434411E0,6.033096E1,2.8105473E1,2.1132791E2,1.4211716E1,1.0704615E1,3.3580303E1,1.9894598E0,1.9674242E1,3.7381694E0,4.4647694E0,8.21265E0,2.238249E0,6.9768686E0,1.2693801E1,3.454085E0,1.1372227E1,1.839445E1,5.067479E1,1.6574888E1,3.4610035E0,1.8427028E2,1.8973404E1,3.4482641E0,1.7120539E0,1.2219796E0,1.7277106E0,4.9523935E0,6.8565187E0,1.9730113E0,1.2428852E0],"tree_param":{"num_deleted":"0","num_feature":"35","num_nodes":"91","size_leaf_vector":"1"}},{"base_weights":[9.07102E-4,2.8908876E-1,-3.1142984E-2,-3.325402E-1,3.8684052E-1,-1.4030623E-1,5.0643936E-2,-5.9191447E-2,1.2611105E-1,1.8521576E-1,8.041038E-1,-3.3597204E-1,2.7063204E-2,5.8584493E-1,-5.0042593E-4,4.1492006E-1,-4.952946E-2,-1.8400018E-1,4.7275832E-1,9.0654534E-1,-1.12180375E-1,-5.5611336E-1,-1.4553744E-1,5.290729E-1,-3.0218316E-2,-8.5449266E-1,7.408201E-1,1.6419877E-1,-1.2295182E-1,8.539052E-1,-3.1854194E-2,2.5484085E-1,-5.397427E-1,6.511531E-2,3.564791E-1,2.4455686E-1,1.0583451E0,-3.6562342E-2,2.7916526E-2,-9.9334955E-1,-3.6368722E-1,1.8473187E-1,-3.042818E-1,8.073325E-1,-5.0440002E-2,-1.4117175E-1,2.8767967E-1,-6.349927E-2,-7.76512E-4,-3.5802072E-1,8.622532E-1,-1.0171286E-1,3.2628E-1,-1.7980695E-1,5.894114E-1,6.2198527E-2,-5.0866907E-3,-3.404946E-2,3.800445E-2,-4.144843E-2,1.6661255E-2,-3.9800047E-3,3.2444566E-2,4.4603717E-2,-5.6363262E-2,5.7475448E-2,5.1583713E-3,-2.9602552E-2,-6.659754E-2,-9.504422E-3,-5.6018185E-2,-1.3981531E-2,4.236002E-2,-9.609614E-3,-5.7042677E-2,1.4486826E-2,6.943182E-2,-3.4796463E-3,-3.700737E-2,-9.659382E-3,3.4658205E-2,-5.5713475E-2,1.9498209E-2,7.1014486E-2,2.5649657E-2,-8.753901E-3,3.2693665E-2,1.9366186E-2,-3.228495E-2,3.528822E-3,-1.5650805E-2,6.1790403E-2,1.0330088E-2],"categories":[],"categories_nodes":[],"categories_segments":[],"categories_sizes":[],"default_left":[0,0,0,0,0,0,0,0,0,0,0,0,0,0,0,0,0,0,0,0,0,0,0,0,0,0,0,0,0,0,0,0,0,0,0,0,0,0,0,0,0,0,0,0,0,0,0,0,0,0,0,0,0,0,0,0,0,0,0,0,0,0,0,0,0,0,0,0,0,0,0,0,0,0,0,0,0,0,0,0,0,0,0,0,0,0,0,0,0,0,0,0,0],"id":15,"left_children":[1,3,5,7,9,11,13,-1,15,17,19,21,23,25,27,29,-1,31,33,35,37,39,41,43,45,47,49,51,53,55,-1,57,59,-1,61,63,65,-1,-1,67,69,71,73,75,-1,77,79,-1,-1,81,83,85,87,89,91,-1,-1,-1,-1,-1,-1,-1,-1,-1,-1,-1,-1,-1,-1,-1,-1,-1,-1,-1,-1,-1,-1,-1,-1,-1,-1,-1,-1,-1,-1,-1,-1,-1,-1,-1,-1,-1,-1],"loss_changes":[8.478571E0,5.711366E0,7.3827987E0,5.2335916E0,6.5690413E0,1.1605481E1,1.2947878E1,0E0,3.431735E0,5.940568E0,2.5154743E0,6.766136E0,5.5307302E0,9.842901E0,8.747824E0,4.3061247E0,0E0,4.0185113E0,2.5526838E0,2.0765038E0,1.8510377E0,5.98258E0,4.7184834E0,9.242716E0,6.1455526E0,1.5393205E0,5.350876E0,8.005272E0,1.0182106E1,2.4284215E0,0E0,6.1013203E0,3.8237762E0,0E0,3.7251654E0,6.011489E0,1.5014038E0,0E0,0E0,2.2639523E0,6.8718815E0,9.308685E0,5.4479523E0,4.7828436E0,0E0,5.478072E0,8.929542E0,0E0,0E0,2.9613018E0,5.960436E0,4.0397797E0,7.082878E0,7.732118E0,4.352658E0,0E0,0E0,0E0,0E0,0E0,0E0,0E0,0E0,0E0,0E0,0E0,0E0,0E0,0E0,0E0,0E0,0E0,0E0,0E0,0E0,0E0,0E0,0E0,0E0,0E0,0E0,0E0,0E0,0E0,0E0,0E0,0E0,0E0,0E0,0E0,0E0,0E0,0E0],"parents":[2147483647,0,0,1,1,2,2,3,3,4,4,5,5,6,6,8,8,9,9,10,10,11,11,12,12,13,13,14,14,15,15,17,17,18,18,19,19,20,20,21,21,22,22,23,23,24,24,25,25,26,26,27,27,28,28,29,29,31,31,32,32,34,34,35,35,36,36,39,39,40,40,41,41,42,42,43,43,45,45,46,46,49,49,50,50,51,51,52,52,53,53,54,54],"right_children":[2,4,6,8,10,12,14,-1,16,18,20,22,24,26,28,30,-1,32,34,36,38,40,42,44,46,48,50,52,54,56,-1,58,60,-1,62,64,66,-1,-1,68,70,72,74,76,-1,78,80,-1,-1,82,84,86,88,90,92,-1,-1,-1,-1,-1,-1,-1,-1,-1,-1,-1,-1,-1,-1,-1,-1,-1,-1,-1,-1,-1,-1,-1,-1,-1,-1,-1,-1,-1,-1,-1,-1,-1,-1,-1,-1,-1,-1],"split_conditions":[-1.387434E0,-2.0260096E0,-6.897332E-2,9.559592E-2,-8.4805495E-1,-3.4639108E-1,-1.13686785E-1,-5.9191447E-2,-1.1807624E0,-3.9308298E-1,1.9033357E0,-3.0033943E-1,-1.4431316E0,-7.520327E-1,-3.262894E-1,-2.8724188E-1,-4.952946E-2,-5.312619E-1,-2.9091537E-1,-9.698679E-1,-3.5541597E-1,-5.7524216E-1,-1.4102253E-1,6.920425E-1,4.1756734E-1,-2.9091537E-1,-7.3723173E-1,-6.056186E-1,1.5876799E0,-1.3816977E0,-3.1854194E-2,-7.0881945E-1,2.6123735E-1,6.511531E-2,8.74832E-2,-9.8615414E-1,-2.0660344E-1,-3.6562342E-2,2.7916526E-2,-6.0736084E-1,-3.310982E-1,-5.3820956E-1,-1.05135374E-1,7.222272E-1,-5.0440002E-2,1.3345879E0,1.7165355E-1,-6.349927E-2,-7.76512E-4,-8.3231187E-1,-3.8960132E-1,1.2760473E0,6.2186724E-1,3.386433E-1,1.7344013E-1,6.2198527E-2,-5.0866907E-3,-3.404946E-2,3.800445E-2,-4.144843E-2,1.6661255E-2,-3.9800047E-3,3.2444566E-2,4.4603717E-2,-5.6363262E-2,5.7475448E-2,5.1583713E-3,-2.9602552E-2,-6.659754E-2,-9.504422E-3,-5.6018185E-2,-1.3981531E-2,4.236002E-2,-9.609614E-3,-5.7042677E-2,1.4486826E-2,6.943182E-2,-3.4796463E-3,-3.700737E-2,-9.659382E-3,3.4658205E-2,-5.5713475E-2,1.9498209E-2,7.1014486E-2,2.5649657E-2,-8.753901E-3,3.2693665E-2,1.9366186E-2,-3.228495E-2,3.528822E-3,-1.5650805E-2,6.1790403E-2,1.0330088E-2],"split_indices":[20,32,24,16,12,19,26,0,21,28,16,12,24,30,19,26,0,4,28,16,26,24,20,20,4,28,19,25,19,11,0,4,30,0,19,18,33,0,0,30,11,20,24,28,0,21,33,0,0,28,11,21,13,26,32,0,0,0,0,0,0,0,0,0,0,0,0,0,0,0,0,0,0,0,0,0,0,0,0,0,0,0,0,0,0,0,0,0,0,0,0,0,0],"split_type":[0,0,0,0,0,0,0,0,0,0,0,0,0,0,0,0,0,0,0,0,0,0,0,0,0,0,0,0,0,0,0,0,0,0,0,0,0,0,0,0,0,0,0,0,0,0,0,0,0,0,0,0,0,0,0,0,0,0,0,0,0,0,0,0,0,0,0,0,0,0,0,0,0,0,0,0,0,0,0,0,0,0,0,0,0,0,0,0,0,0,0,0,0],"sum_hessian":[9.159924E2,9.087355E1,8.251188E2,1.2021812E1,7.885174E1,3.531047E2,4.720141E2,3.6556194E0,8.366193E0,5.413647E1,2.4715265E1,1.6232677E2,1.9077794E2,4.025982E1,4.3175427E2,7.1463847E0,1.2198083E0,2.3859732E1,3.027674E1,2.2239496E1,2.4757705E0,7.440025E1,8.7926506E1,1.8695557E1,1.720824E2,3.4725204E0,3.67873E1,1.8397025E2,2.4778403E2,5.1751714E0,1.9712137E0,1.0809214E1,1.3050518E1,2.4682405E0,2.7808498E1,4.635488E0,1.7604008E1,1.24017E0,1.2356005E0,2.1464884E1,5.2935375E1,2.8489693E1,5.9436813E1,1.6233358E1,2.462198E0,1.2797293E2,4.4109463E1,1.9787802E0,1.4937402E0,3.4669325E0,3.3320366E1,6.981072E1,1.1415952E2,2.3016193E2,1.762209E1,3.4608374E0,1.7143339E0,3.6678054E0,7.141408E0,9.840599E0,3.2099195E0,1.1454298E1,1.63542E1,3.386658E0,1.24883E0,1.588451E1,1.7194977E0,1.108081E1,1.0384073E1,4.407482E1,8.860552E0,1.7088953E1,1.140074E1,5.3498466E1,5.938347E0,9.379885E0,6.853473E0,1.153094E2,1.2663527E1,2.0418526E1,2.3690937E1,1.4804406E0,1.986492E0,1.1646074E1,2.1674294E1,6.433251E1,5.4782066E0,1.0797954E2,6.1799865E0,8.0090996E1,1.5007094E2,5.7256813E0,1.1896408E1],"tree_param":{"num_deleted":"0","num_feature":"35","num_nodes":"93","size_leaf_vector":"1"}},{"base_weights":[-9.162876E-3,2.1009715E-1,-4.8839927E-2,3.4349942E-1,-6.2721774E-2,-5.013132E-1,-2.2468824E-2,-4.187036E-1,4.3030635E-1,-8.830839E-1,4.906197E-2,-7.6711094E-1,1.3419239E-1,-3.884256E-1,5.9884335E-3,3.585202E-1,-9.71983E-1,-6.0725385E-1,4.972825E-1,-2.4453255E-3,-5.823466E-2,1.8388198E-1,-4.9377888E-1,-9.070739E-1,4.797131E-1,4.8146558E-1,-4.990572E-2,4.3331572E-1,-5.7138824E-1,2.0778722E-1,-4.6299476E-2,7.797596E-1,-1.889672E-2,-2.7824447E-1,-6.792714E-2,-5.3293414E-2,1.989472E-2,3.635544E-1,9.8500204E-1,5.2627683E-2,9.5267963E-1,-1.0536923E0,4.4432697E-1,1.8887034E-2,-1.0066578E0,4.248048E-2,-7.773123E-3,-1.7861579E-2,6.358101E-2,-5.2192277E-1,8.094559E-1,-1.211971E0,-3.0040252E-1,2.74653E-1,-5.765497E-1,9.6212476E-1,-6.1746143E-2,8.706386E-3,5.1768508E-2,1.0590018E-2,-3.2191943E-2,1.2362861E-2,5.33669E-2,7.003036E-2,2.4231052E-2,7.649912E-3,-5.7020914E-2,6.585327E-2,8.72499E-3,-7.407431E-2,1.3434157E-2,-1.127647E-2,4.1583367E-2,-2.4015887E-2,-6.2587194E-2,-3.6656644E-2,3.2931924E-2,-5.266275E-2,1.1981323E-2,-1.802937E-2,5.73501E-2,-1.0073393E-2,-6.768832E-2,7.2657163E-3,-3.5506044E-2,-1.0373647E-3,2.4592236E-2,3.7769046E-2,-4.4585764E-2,-1.1399424E-2,6.0392994E-2,-6.1408305E-3,7.964246E-3],"categories":[],"categories_nodes":[],"categories_segments":[],"categories_sizes":[],"default_left":[0,0,0,0,0,0,0,0,0,0,0,0,0,0,0,0,0,0,0,0,0,0,0,0,0,0,0,0,0,0,0,0,0,0,0,0,0,0,0,0,0,0,0,0,0,0,0,0,0,0,0,0,0,0,0,0,0,0,0,0,0,0,0,0,0,0,0,0,0,0,0,0,0,0,0,0,0,0,0,0,0,0,0,0,0,0,0,0,0,0,0,0,0],"id":16,"left_children":[1,3,5,7,9,11,13,15,17,19,21,23,25,27,29,31,33,35,37,-1,-1,39,41,43,45,47,-1,49,51,53,55,57,-1,59,-1,-1,-1,61,63,65,67,69,71,-1,73,-1,-1,75,-1,77,79,81,83,85,87,89,91,-1,-1,-1,-1,-1,-1,-1,-1,-1,-1,-1,-1,-1,-1,-1,-1,-1,-1,-1,-1,-1,-1,-1,-1,-1,-1,-1,-1,-1,-1,-1,-1,-1,-1,-1,-1],"loss_changes":[7.937366E0,5.1099863E0,9.20508E0,6.403141E0,4.3313546E0,7.280266E0,7.6140203E0,4.701704E0,6.2038975E0,1.2726693E0,3.171902E0,5.689398E0,5.7425184E0,8.178478E0,7.175771E0,1.8272717E0,1.2801094E0,3.0056267E0,4.8811417E0,0E0,0E0,3.4264157E0,5.0101204E0,3.8880405E0,9.997133E-1,4.32937E0,0E0,4.0783315E0,7.200117E0,7.4977045E0,8.474112E0,3.5675383E-1,0E0,7.580464E-1,0E0,0E0,0E0,5.025819E0,2.794382E0,3.825193E0,1.1782503E0,3.6291623E0,1.208652E0,0E0,2.7161808E0,0E0,0E0,4.19657E0,0E0,1.661561E0,3.4516063E0,1.5361271E0,5.9380445E0,8.326896E0,5.423723E0,2.6764631E0,7.2142124E0,0E0,0E0,0E0,0E0,0E0,0E0,0E0,0E0,0E0,0E0,0E0,0E0,0E0,0E0,0E0,0E0,0E0,0E0,0E0,0E0,0E0,0E0,0E0,0E0,0E0,0E0,0E0,0E0,0E0,0E0,0E0,0E0,0E0,0E0,0E0,0E0],"parents":[2147483647,0,0,1,1,2,2,3,3,4,4,5,5,6,6,7,7,8,8,9,9,10,10,11,11,12,12,13,13,14,14,15,15,16,16,17,17,18,18,21,21,22,22,23,23,24,24,25,25,27,27,28,28,29,29,30,30,31,31,33,33,37,37,38,38,39,39,40,40,41,41,42,42,44,44,47,47,49,49,50,50,51,51,52,52,53,53,54,54,55,55,56,56],"right_children":[2,4,6,8,10,12,14,16,18,20,22,24,26,28,30,32,34,36,38,-1,-1,40,42,44,46,48,-1,50,52,54,56,58,-1,60,-1,-1,-1,62,64,66,68,70,72,-1,74,-1,-1,76,-1,78,80,82,84,86,88,90,92,-1,-1,-1,-1,-1,-1,-1,-1,-1,-1,-1,-1,-1,-1,-1,-1,-1,-1,-1,-1,-1,-1,-1,-1,-1,-1,-1,-1,-1,-1,-1,-1,-1,-1,-1,-1],"split_conditions":[-1.2180616E0,7.173545E-1,-9.615277E-1,-8.052552E-1,7.480502E-1,1.4799905E-1,-6.177523E-1,-9.3441033E-1,-2.2861595E0,-1.5175345E0,1.1959922E-2,6.6980815E-1,-5.9296675E-2,-1.3377291E0,-1.4081961E-1,3.5174597E-2,-8.2660216E-1,-1.6078548E-1,-5.961783E-1,-2.4453255E-3,-5.823466E-2,-7.941165E-2,-1.7626446E-1,-1.3362579E0,3.389901E-1,-1.1320109E-2,-4.990572E-2,3.3508036E-3,-8.755975E-1,1.0520006E0,-1.4635296E0,-7.0151186E-1,-1.889672E-2,-9.219146E-1,-6.792714E-2,-5.3293414E-2,1.989472E-2,6.2749326E-1,1.08606584E-1,-1.3124463E-1,-7.0151186E-1,-6.137804E-1,-1.6551018E0,1.8887034E-2,-5.848665E-1,4.248048E-2,-7.773123E-3,-5.7665074E-1,6.358101E-2,-1.3568084E0,-5.258372E-1,-1.084115E0,-1.05925426E-1,-6.897332E-2,-1.0688535E0,-3.755998E-2,3.6439526E-1,8.706386E-3,5.1768508E-2,1.0590018E-2,-3.2191943E-2,1.2362861E-2,5.33669E-2,7.003036E-2,2.4231052E-2,7.649912E-3,-5.7020914E-2,6.585327E-2,8.72499E-3,-7.407431E-2,1.3434157E-2,-1.127647E-2,4.1583367E-2,-2.4015887E-2,-6.2587194E-2,-3.6656644E-2,3.2931924E-2,-5.266275E-2,1.1981323E-2,-1.802937E-2,5.73501E-2,-1.0073393E-2,-6.768832E-2,7.2657163E-3,-3.5506044E-2,-1.0373647E-3,2.4592236E-2,3.7769046E-2,-4.4585764E-2,-1.1399424E-2,6.0392994E-2,-6.1408305E-3,7.964246E-3],"split_indices":[20,9,28,28,5,24,33,28,32,32,27,15,4,21,33,31,25,10,12,0,0,27,31,25,32,13,0,24,31,27,3,31,0,8,0,0,0,17,25,27,31,25,21,0,4,0,0,30,0,11,22,20,27,24,8,15,28,0,0,0,0,0,0,0,0,0,0,0,0,0,0,0,0,0,0,0,0,0,0,0,0,0,0,0,0,0,0,0,0,0,0,0,0],"split_type":[0,0,0,0,0,0,0,0,0,0,0,0,0,0,0,0,0,0,0,0,0,0,0,0,0,0,0,0,0,0,0,0,0,0,0,0,0,0,0,0,0,0,0,0,0,0,0,0,0,0,0,0,0,0,0,0,0,0,0,0,0,0,0,0,0,0,0,0,0,0,0,0,0,0,0,0,0,0,0,0,0,0,0,0,0,0,0,0,0,0,0,0,0],"sum_hessian":[9.102043E2,1.3881288E2,7.713914E2,9.3053E1,4.575988E1,4.1490517E1,7.299009E2,9.123271E0,8.392973E1,4.660119E0,4.1099762E1,2.9108791E1,1.2381727E1,5.175021E1,6.781507E2,3.9402215E0,5.1830497E0,4.600133E0,7.93296E1,1.4723684E0,3.1877508E0,3.3452705E1,7.6470575E0,2.6415945E1,2.6928453E0,9.915486E0,2.466241E0,9.174846E0,4.2575367E1,1.3894305E2,5.3920764E2,2.4691234E0,1.4710981E0,2.4700239E0,2.713026E0,3.117374E0,1.482759E0,6.362864E1,1.5700956E1,2.9486948E1,3.9657555E0,4.7116637E0,2.935394E0,1.6992557E0,2.471669E1,1.4884461E0,1.2043992E0,6.674821E0,3.2406654E0,2.4825733E0,6.692272E0,1.1624285E1,3.095108E1,1.2862724E2,1.0315816E1,7.2101703E0,5.3199744E2,1.2317927E0,1.2373308E0,1.2351243E0,1.2348995E0,5.5765038E1,7.863604E0,7.5942574E0,8.106699E0,2.8002838E1,1.4841108E0,2.229356E0,1.7363993E0,3.46908E0,1.2425835E0,1.228539E0,1.7068549E0,8.792956E0,1.5923734E1,3.2037475E0,3.4710736E0,1.236692E0,1.2458812E0,1.4831021E0,5.2091703E0,1.7283134E0,9.895971E0,1.5133384E1,1.5817696E1,5.4884228E1,7.3743004E1,1.7066247E0,8.609191E0,1.2463282E0,5.963842E0,4.1717667E2,1.1482078E2],"tree_param":{"num_deleted":"0","num_feature":"35","num_nodes":"93","size_leaf_vector":"1"}},{"base_weights":[-1.8404469E-2,-5.5869067E-1,-1.0969428E-3,-7.2481734E-1,6.407975E-1,-9.235571E-3,8.7094164E-1,-4.1051E-1,-1.3589804E0,-2.4328088E-2,6.561744E-2,5.138778E-1,-2.0421142E-2,-6.9381334E-3,1.0710778E0,4.515977E-2,-6.020433E-1,-7.76281E-2,-8.9665195E-3,-4.0554965E-1,7.8853315E-1,3.4065917E-2,-2.003548E-1,1.6470028E-2,6.503522E-2,-7.360558E-1,2.2414107E-2,-7.9660714E-1,2.193229E-2,9.626889E-1,-1.5871134E-2,1.4819285E-1,-5.0422527E-2,3.975446E-1,-2.4823476E-1,-1.4853425E-2,-6.572363E-2,-5.2788217E-2,-7.6009147E-3,6.744053E-2,2.6135791E-2,4.515805E-3,3.5745714E-2,-6.280623E-3,6.004395E-3,5.261299E-2,3.4922976E-3,-3.2834526E-2,-7.032454E-3],"categories":[],"categories_nodes":[],"categories_segments":[],"categories_sizes":[],"default_left":[0,0,0,0,0,0,0,0,0,0,0,0,0,0,0,0,0,0,0,0,0,0,0,0,0,0,0,0,0,0,0,0,0,0,0,0,0,0,0,0,0,0,0,0,0,0,0,0,0],"id":17,"left_children":[1,3,5,7,9,11,13,15,17,-1,-1,19,21,-1,23,-1,25,-1,-1,27,29,31,33,-1,-1,35,-1,37,-1,39,-1,41,43,45,47,-1,-1,-1,-1,-1,-1,-1,-1,-1,-1,-1,-1,-1,-1],"loss_changes":[8.46472E0,6.0634174E0,6.24071E0,4.4548616E0,3.628131E0,5.1073236E0,1.7916675E0,5.1352425E0,1.5258675E0,0E0,0E0,4.934397E0,8.377356E0,0E0,7.4674463E-1,0E0,2.6560926E0,0E0,0E0,1.9550418E0,3.081111E0,6.334723E0,5.7838674E0,0E0,0E0,3.427022E0,0E0,4.54077E-1,0E0,1.4520845E0,0E0,9.0993805E0,4.8587494E0,3.1680458E0,8.014589E0,0E0,0E0,0E0,0E0,0E0,0E0,0E0,0E0,0E0,0E0,0E0,0E0,0E0,0E0],"parents":[2147483647,0,0,1,1,2,2,3,3,4,4,5,5,6,6,7,7,8,8,11,11,12,12,14,14,16,16,19,19,20,20,21,21,22,22,25,25,27,27,29,29,31,31,32,32,33,33,34,34],"right_children":[2,4,6,8,10,12,14,16,18,-1,-1,20,22,-1,24,-1,26,-1,-1,28,30,32,34,-1,-1,36,-1,38,-1,40,-1,42,44,46,48,-1,-1,-1,-1,-1,-1,-1,-1,-1,-1,-1,-1,-1,-1],"split_conditions":[-1.2692224E0,1.2081949E0,2.9168396E0,-1.7778715E-1,-5.3928334E-1,-2.099174E0,-3.7189254E-1,-7.0144516E-1,-3.2533932E-1,-2.4328088E-2,6.561744E-2,-2.863651E0,4.4445467E-1,-6.9381334E-3,1.0305426E0,4.515977E-2,-5.1535908E-2,-7.76281E-2,-8.9665195E-3,-1.5175345E0,-2.77247E-1,-3.7775958E-1,-7.417629E-1,1.6470028E-2,6.503522E-2,-4.8600596E-1,2.2414107E-2,2.557028E0,2.193229E-2,-1.5516177E0,-1.5871134E-2,-4.3857262E-1,8.512829E-2,-5.505633E-1,6.468784E-1,-1.4853425E-2,-6.572363E-2,-5.2788217E-2,-7.6009147E-3,6.744053E-2,2.6135791E-2,4.515805E-3,3.5745714E-2,-6.280623E-3,6.004395E-3,5.261299E-2,3.4922976E-3,-3.2834526E-2,-7.032454E-3],"split_indices":[22,31,32,20,12,26,29,4,30,0,0,26,25,0,14,0,4,0,0,32,20,2,30,0,0,25,0,29,0,24,0,6,31,22,25,0,0,0,0,0,0,0,0,0,0,0,0,0,0],"split_type":[0,0,0,0,0,0,0,0,0,0,0,0,0,0,0,0,0,0,0,0,0,0,0,0,0,0,0,0,0,0,0,0,0,0,0,0,0,0,0,0,0,0,0,0,0,0,0,0,0],"sum_hessian":[9.0428467E2,2.709777E1,8.771869E2,2.4148922E1,2.9488478E0,8.7005615E2,7.1307173E0,1.72478E1,6.9011216E0,1.2036687E0,1.7451792E0,1.7273817E1,8.5278235E2,1.2303178E0,5.9003997E0,1.7218964E0,1.5525905E1,5.656727E0,1.2443948E0,3.863594E0,1.3410222E1,6.5519E2,1.9759232E2,1.970459E0,3.9299405E0,1.4034441E1,1.4914634E0,2.6789792E0,1.184615E0,1.1697715E1,1.7125072E0,2.7838873E2,3.768013E2,1.410861E1,1.8348372E2,8.839399E0,5.1950417E0,1.4557902E0,1.2231889E0,5.1299715E0,6.5677433E0,2.536445E2,2.4744226E1,2.616742E2,1.1512708E2,3.9686036E0,1.0140006E1,3.71891E1,1.4629462E2],"tree_param":{"num_deleted":"0","num_feature":"35","num_nodes":"49","size_leaf_vector":"1"}},{"base_weights":[1.6953066E-2,-7.177097E-2,9.733207E-2,-2.4904123E-1,4.3190528E-2,6.784351E-1,2.7834417E-2,4.0673185E-2,-3.773058E-1,7.818908E-1,7.9077855E-3,-3.8346943E-1,9.224959E-1,1.85291E-1,-9.697792E-2,-2.868498E-1,7.212431E-1,-6.762875E-1,-2.3470761E-1,-3.077588E-2,1.0766474E0,6.6013925E-2,-3.4699684E-1,-8.837123E-1,7.4460834E-1,-4.318334E-2,1.0201215E0,1.077789E0,1.4589638E-1,-2.0227055E-1,1.3268855E-1,6.4220625E-1,-4.0084094E-1,1.0975248E0,8.225215E-2,-9.7682446E-1,-1.5802214E-1,9.6314496E-1,-2.9515225E-1,-5.17913E-2,3.6980003E-2,9.424154E-4,1.3755454E0,6.8840927E-1,-8.406055E-4,3.0600162E-2,-7.8557706E-1,-1.2130259E0,7.934867E-3,5.0329496E-3,5.616923E-2,1.1541082E0,-1.0520492E-1,-3.0392597E-3,7.318624E-2,-1.026633E0,1.723404E-1,2.1113932E-2,-5.480079E-1,1.1768665E-2,1.1128484E0,-1.0031753E-2,5.139176E-2,-2.8074777E-2,1.9952446E-2,7.879383E-2,1.7973542E-2,-3.3209745E-2,3.8146645E-2,1.7423658E-2,-5.394436E-2,5.212466E-2,-2.0794248E-2,4.912921E-3,6.431736E-2,-5.344391E-2,-9.596023E-3,8.573155E-2,1.1337044E-2,5.8036722E-2,7.138144E-3,1.2776372E-2,-8.109051E-3,-4.0652797E-2,2.0722017E-2,-5.1472824E-2,6.1950567E-3,-1.0003836E-2,-7.1980946E-2,6.1971437E-2,-7.1394525E-4,-5.4047566E-2,4.9437102E-2,-6.547673E-2,-9.528653E-3,-2.7041381E-2,1.046152E-2,9.025306E-3,-2.4827724E-2,-2.0920357E-2,-5.650432E-2,3.088716E-2,-8.790411E-3,6.724252E-2,7.7660044E-4],"categories":[],"categories_nodes":[],"categories_segments":[],"categories_sizes":[],"default_left":[0,0,0,0,0,0,0,0,